#include "model_weights.h"
// Auto-generated C arrays from H5 model

// shape: (128,)
const float model_weights_dense_sequential_dense_biases[] = { 0.026924f, -0.023571f, 0.014839f, 0.075607f, -0.051527f, 0.037291f, 0.006998f, -0.009311f, -0.008540f, -0.072343f, -0.043357f, 0.046228f, -0.055308f, 0.042353f, 0.061247f, 0.034197f, 0.083429f, 0.024423f, 0.030474f, 0.057542f, 0.088296f, -0.006306f, 0.160782f, 0.083725f, -0.100384f, 0.056639f, 0.067965f, 0.115712f, 0.016552f, -0.132759f, 0.120626f, 0.036618f, -0.023864f, -0.019510f, -0.031978f, 0.024187f, 0.107365f, 0.008806f, -0.030918f, 0.138549f, -0.059587f, -0.027981f, 0.047003f, 0.082116f, 0.030234f, 0.015346f, 0.052779f, -0.038412f, 0.001524f, -0.036786f, 0.076594f, -0.069287f, 0.070820f, -0.019568f, 0.041657f, 0.104900f, 0.048100f, 0.094665f, 0.006331f, 0.054739f, -0.082733f, 0.047662f, 0.031714f, 0.073072f, 0.010219f, 0.020246f, -0.026467f, 0.002021f, 0.031020f, -0.018088f, -0.001173f, -0.050153f, 0.060922f, -0.026310f, -0.014745f, -0.006288f, 0.033325f, -0.022614f, -0.003642f, 0.013897f, -0.051912f, 0.003202f, 0.098237f, 0.055676f, 0.090904f, 0.046717f, -0.104328f, -0.012992f, -0.034660f, 0.030676f, -0.030591f, 0.033736f, 0.009177f, 0.003466f, 0.067369f, 0.077721f, 0.067822f, 0.074614f, -0.034620f, -0.002480f, 0.078026f, 0.104101f, 0.010833f, 0.084541f, 0.006819f, 0.014501f, 0.019357f, -0.006411f, -0.050450f, -0.030857f, 0.090410f, 0.032418f, -0.013881f, -0.057019f, -0.038919f, 0.137749f, 0.015830f, 0.005242f, 0.014219f, -0.003387f, 0.003111f, 0.022438f, -0.002015f, 0.045733f, -0.013867f, -0.027057f, 0.021437f, -0.060917f };

// shape: (784, 128)
const float model_weights_dense_sequential_dense_weights[] = { 0.019644f, 0.005262f, -0.047211f, 0.024440f, -0.059097f, -0.077082f, 0.080630f, -0.072912f, 0.026576f, 0.065681f, -0.051299f, -0.001082f, 0.058740f, 0.053435f, 0.060298f, 0.070649f, 0.037062f, 0.040156f, 0.018510f, -0.042352f, -0.080651f, -0.042158f, 0.067927f, 0.004640f, -0.073709f, -0.063756f, 0.061998f, 0.066066f, 0.031746f, 0.010433f, 0.019884f, 0.007817f, 0.072344f, -0.029898f, -0.072181f, 0.026768f, 0.047805f, 0.021037f, 0.029512f, -0.013290f, 0.070849f, -0.023229f, -0.052677f, 0.058018f, -0.045922f, 0.060893f, -0.058297f, -0.022762f, -0.023848f, 0.005082f, -0.039914f, -0.050938f, 0.011424f, -0.066964f, 0.061403f, -0.036547f, -0.079482f, -0.017948f, -0.035566f, 0.022997f, -0.055014f, -0.013934f, -0.022623f, -0.015697f, -0.037296f, -0.019185f, -0.070151f, 0.049361f, 0.027952f, 0.028117f, -0.066403f, 0.030250f, 0.017651f, -0.052393f, 0.038118f, 0.075911f, 0.042672f, -0.045339f, -0.006953f, -0.019792f, -0.045573f, -0.074450f, 0.005269f, -0.079428f, 0.077846f, -0.060865f, -0.043488f, -0.019141f, 0.047082f, 0.027169f, 0.036755f, -0.071514f, 0.045820f, -0.078070f, 0.037563f, 0.053387f, -0.070883f, -0.056801f, 0.047339f, -0.032382f, 0.038758f, 0.042679f, -0.039907f, -0.063605f, -0.056738f, -0.071604f, 0.018017f, 0.077475f, 0.030424f, -0.029233f, 0.051038f, 0.007975f, -0.073504f, 0.073367f, -0.051397f, -0.063027f, -0.070863f, -0.006813f, -0.009409f, -0.065579f, 0.066680f, 0.051251f, -0.054103f, 0.024877f, -0.033244f, 0.045244f, -0.044928f, -0.038332f, -0.040968f, 0.031445f, -0.012347f, 0.057715f, 0.077571f, 0.064148f, -0.078411f, 0.035124f, 0.054232f, 0.031135f, 0.044265f, -0.072230f, 0.011320f, 0.046097f, 0.004337f, -0.010499f, 0.027906f, 0.059582f, -0.034706f, 0.071995f, -0.031296f, 0.006859f, 0.033541f, 0.052929f, 0.004139f, 0.069480f, -0.076541f, -0.002697f, -0.015272f, 0.072615f, -0.079360f, -0.076584f, 0.062960f, 0.020720f, 0.051632f, -0.003869f, 0.023405f, 0.018912f, -0.003145f, 0.059914f, 0.040505f, -0.003753f, -0.024929f, 0.037666f, -0.021925f, 0.079931f, -0.028918f, 0.012931f, 0.077752f, -0.053529f, 0.029357f, 0.034304f, 0.037598f, -0.009700f, 0.040551f, 0.014883f, 0.036559f, 0.014240f, -0.029023f, -0.067606f, 0.047743f, 0.050502f, -0.052917f, 0.048773f, 0.012593f, -0.061663f, 0.018622f, -0.068586f, 0.002375f, -0.013054f, 0.038195f, 0.058571f, -0.005514f, -0.039331f, -0.022494f, -0.061574f, -0.058827f, 0.078404f, 0.062367f, -0.050358f, 0.001428f, 0.055778f, 0.028543f, -0.031374f, 0.001068f, -0.074580f, 0.022049f, 0.054495f, 0.062503f, 0.025343f, -0.034860f, -0.021476f, 0.073693f, -0.026492f, -0.047876f, -0.017970f, 0.053752f, 0.025832f, -0.028370f, 0.030918f, 0.007986f, -0.018210f, 0.061097f, 0.025721f, -0.051836f, 0.011785f, -0.026672f, 0.021351f, 0.047849f, -0.031565f, -0.020938f, -0.063724f, 0.014119f, 0.064720f, 0.059529f, -0.037249f, -0.018073f, -0.043659f, 0.063997f, -0.079229f, -0.055570f, -0.019884f, 0.045277f, 0.053948f, -0.062450f, 0.048281f, 0.016277f, -0.006407f, -0.016544f, -0.009078f, 0.005795f, 0.051328f, 0.046381f, -0.027546f, 0.046616f, 0.069448f, 0.072839f, -0.051420f, -0.002849f, -0.058548f, -0.057051f, 0.024507f, -0.027736f, 0.018468f, -0.059073f, -0.038183f, -0.006713f, -0.043300f, 0.009918f, -0.062230f, -0.006538f, 0.059335f, -0.042662f, 0.053830f, -0.032309f, 0.055732f, 0.051248f, 0.020803f, -0.064621f, -0.072626f, -0.052377f, 0.029699f, 0.017110f, -0.041671f, 0.064353f, 0.012699f, -0.016879f, -0.033822f, -0.044948f, 0.074940f, 0.073329f, 0.002966f, -0.069843f, 0.020901f, -0.031098f, -0.010759f, -0.078765f, -0.035086f, 0.034529f, 0.018722f, 0.073296f, 0.017045f, -0.009509f, -0.010010f, 0.055567f, 0.011240f, -0.080959f, -0.062865f, 0.018946f, -0.014793f, 0.068533f, -0.029498f, 0.055757f, 0.074735f, 0.027487f, -0.007034f, -0.027785f, -0.003988f, -0.004373f, 0.053440f, -0.037441f, 0.063790f, -0.022610f, 0.036712f, -0.051041f, 0.045195f, -0.009118f, 0.062415f, -0.052119f, 0.001995f, -0.050130f, -0.065756f, 0.029121f, -0.080647f, 0.005984f, 0.036190f, -0.046056f, 0.051706f, -0.063171f, -0.014412f, -0.036931f, 0.011367f, 0.074681f, -0.001644f, -0.019625f, -0.037848f, 0.001027f, -0.038568f, 0.068536f, 0.080756f, -0.020201f, -0.028278f, -0.028994f, -0.050700f, 0.060588f, -0.043229f, -0.045029f, -0.053846f, -0.075809f, 0.057471f, 0.078635f, 0.027326f, -0.065838f, 0.026642f, 0.003086f, 0.035973f, 0.004298f, 0.067131f, -0.078262f, -0.013449f, 0.012331f, -0.044898f, 0.013221f, 0.038052f, 0.009601f, -0.001823f, 0.073062f, -0.065884f, -0.062112f, 0.023789f, 0.049714f, 0.021031f, -0.006922f, -0.009533f, 0.044935f, -0.011616f, 0.075624f, -0.035434f, 0.042891f, 0.037711f, 0.045700f, 0.016893f, 0.054038f, -0.056599f, -0.028097f, 0.025361f, 0.008615f, -0.013187f, -0.033669f, -0.008523f, -0.035314f, 0.062003f, 0.061584f, -0.050121f, -0.074687f, -0.025299f, 0.059243f, 0.045320f, 0.077951f, -0.014664f, 0.023373f, 0.066826f, 0.022436f, -0.000081f, -0.075387f, 0.056946f, -0.020320f, -0.015304f, 0.074671f, 0.036113f, -0.075050f, 0.069547f, -0.072003f, -0.052053f, 0.033316f, -0.046175f, 0.081059f, -0.019461f, -0.022019f, 0.032487f, -0.012677f, 0.001531f, 0.027003f, 0.078540f, 0.001174f, 0.012814f, -0.073490f, -0.003568f, 0.074379f, -0.035396f, 0.075447f, -0.052149f, 0.033908f, 0.030705f, -0.064940f, -0.075578f, 0.040942f, 0.073374f, 0.060212f, 0.033899f, -0.016014f, -0.079808f, -0.056453f, 0.059895f, 0.047802f, -0.025785f, -0.042864f, 0.036139f, 0.028892f, -0.020150f, -0.063778f, -0.022280f, 0.037601f, 0.074799f, 0.007110f, -0.005329f, -0.014130f, 0.056075f, -0.026713f, 0.005811f, -0.058439f, -0.072848f, 0.006828f, 0.033761f, 0.000369f, -0.044794f, -0.071800f, 0.074509f, -0.074716f, 0.046028f, -0.000027f, -0.041288f, -0.025871f, -0.044822f, 0.055276f, -0.040323f, -0.015420f, 0.041889f, 0.058898f, -0.022827f, 0.061547f, 0.043955f, -0.001770f, -0.063731f, 0.017468f, 0.075899f, 0.006102f, 0.047805f, -0.010697f, -0.022400f, 0.036452f, -0.060263f, -0.073875f, -0.046164f, 0.066486f, -0.060986f, 0.004295f, 0.067049f, 0.035417f, 0.054364f, 0.069179f, 0.069338f, 0.065808f, 0.025810f, -0.032046f, 0.073388f, -0.027741f, -0.067684f, -0.020764f, 0.017584f, 0.008303f, 0.022598f, -0.051472f, -0.017714f, -0.007254f, 0.036210f, -0.048507f, 0.040671f, -0.045409f, 0.028068f, 0.010735f, -0.059073f, -0.070418f, 0.059353f, 0.029963f, -0.077822f, -0.013890f, -0.062947f, -0.057139f, -0.037935f, -0.007209f, 0.031175f, -0.055351f, -0.023643f, 0.050195f, -0.073535f, 0.043007f, -0.062607f, -0.036598f, 0.077359f, -0.041409f, 0.067207f, 0.000126f, 0.016305f, 0.005507f, 0.003215f, 0.059453f, 0.062678f, 0.012191f, 0.007522f, -0.025439f, -0.003375f, -0.031250f, 0.025886f, -0.008983f, -0.080202f, 0.047854f, 0.050233f, -0.042727f, 0.069419f, -0.057238f, -0.050450f, 0.072702f, 0.000721f, -0.069462f, 0.026069f, 0.029706f, -0.080863f, 0.053676f, 0.020148f, -0.052262f, 0.029598f, -0.076838f, -0.045587f, -0.031580f, -0.067822f, 0.041440f, 0.019280f, -0.000462f, -0.017993f, -0.065852f, 0.049789f, 0.049595f, 0.062323f, 0.070310f, -0.062965f, 0.080287f, -0.021008f, -0.033733f, -0.017635f, 0.002360f, -0.030987f, 0.079753f, 0.007978f, 0.073895f, -0.039146f, -0.001834f, -0.057236f, 0.038134f, -0.077637f, -0.060493f, 0.019907f, 0.011168f, 0.047346f, -0.052041f, 0.073892f, 0.044550f, -0.038069f, -0.076520f, 0.020443f, -0.014339f, -0.042032f, -0.016648f, 0.061605f, -0.031623f, -0.012319f, -0.021686f, -0.045927f, 0.061036f, 0.059605f, -0.076939f, -0.009685f, -0.019443f, 0.054437f, -0.001300f, -0.019271f, 0.047635f, 0.052554f, -0.016904f, 0.019981f, 0.046380f, 0.048431f, -0.058413f, 0.038899f, 0.035426f, 0.048544f, 0.007868f, -0.025526f, 0.057689f, -0.008634f, 0.043610f, 0.069628f, -0.040493f, -0.057465f, -0.047796f, 0.009350f, 0.015754f, -0.032756f, 0.000921f, -0.078772f, -0.072873f, -0.020950f, -0.049974f, 0.022533f, -0.041435f, -0.016657f, -0.076162f, -0.049054f, -0.036121f, -0.066817f, -0.048419f, -0.051964f, -0.051435f, -0.059300f, -0.020972f, 0.031928f, 0.050836f, -0.038035f, -0.020919f, 0.008757f, 0.021529f, 0.004759f, -0.029099f, 0.049398f, 0.050558f, -0.022844f, -0.002179f, 0.001535f, 0.057400f, -0.024967f, -0.076636f, 0.037948f, -0.057498f, 0.037666f, 0.065493f, -0.039792f, -0.076116f, -0.071132f, -0.008361f, 0.001162f, -0.000866f, -0.045068f, -0.036326f, -0.065841f, 0.049814f, 0.025709f, 0.028496f, -0.035431f, -0.039676f, 0.039052f, 0.077294f, -0.019165f, 0.066386f, 0.037550f, -0.028027f, 0.044238f, -0.067219f, 0.048110f, -0.040686f, -0.067508f, -0.060758f, 0.057687f, -0.030765f, -0.055131f, -0.001052f, -0.021521f, 0.057569f, 0.010546f, -0.078178f, -0.046596f, -0.071197f, 0.004222f, 0.077955f, -0.040744f, -0.006076f, -0.039798f, 0.073462f, 0.004238f, 0.036184f, 0.015944f, -0.000226f, 0.035636f, 0.034480f, -0.055299f, -0.019820f, 0.064572f, 0.006256f, 0.080944f, -0.024607f, -0.044829f, 0.050325f, 0.016330f, 0.008450f, 0.031316f, 0.028097f, -0.049005f, 0.011877f, -0.022445f, 0.039062f, 0.012794f, -0.063405f, -0.069226f, 0.025142f, 0.000390f, 0.064568f, 0.007717f, 0.006797f, 0.069777f, -0.000909f, -0.014351f, 0.006133f, -0.009008f, -0.015615f, 0.005712f, -0.077961f, 0.049746f, 0.028842f, 0.074839f, 0.034743f, -0.078520f, 0.009531f, -0.026487f, 0.024329f, -0.077895f, -0.017549f, 0.077712f, -0.057680f, -0.019580f, 0.002504f, 0.060205f, -0.039208f, 0.044559f, 0.046587f, -0.078162f, 0.040829f, 0.030969f, -0.035404f, 0.063550f, 0.020324f, -0.013629f, -0.045423f, -0.038300f, 0.064659f, -0.076038f, -0.078703f, -0.040696f, 0.066115f, 0.049459f, -0.060376f, 0.041001f, 0.020877f, 0.078209f, 0.037762f, -0.042578f, -0.073609f, 0.002467f, 0.037104f, -0.033512f, 0.050569f, -0.037525f, 0.010015f, 0.051634f, 0.041539f, 0.026277f, 0.010630f, -0.050051f, 0.018062f, -0.015354f, -0.062273f, 0.034359f, 0.030373f, 0.011412f, 0.018065f, 0.051530f, 0.006234f, 0.004772f, -0.071271f, 0.021244f, -0.037963f, -0.034800f, 0.064623f, -0.019689f, 0.013740f, -0.047399f, -0.000976f, -0.033751f, 0.052371f, 0.010530f, -0.051613f, -0.006913f, 0.021496f, 0.022849f, -0.001830f, -0.020073f, -0.021380f, 0.045966f, -0.060718f, 0.070293f, -0.067288f, -0.077634f, -0.048676f, 0.067925f, -0.056996f, 0.019610f, 0.068555f, -0.063678f, 0.060940f, -0.008398f, 0.077668f, 0.047330f, -0.036244f, 0.012865f, 0.072256f, -0.057605f, -0.046942f, -0.068814f, -0.037215f, -0.075131f, -0.002623f, 0.004885f, 0.024494f, -0.031054f, -0.052737f, 0.009040f, -0.072412f, -0.028050f, 0.009366f, 0.075101f, -0.011473f, -0.011829f, -0.063484f, -0.077175f, -0.027508f, -0.075530f, -0.003656f, -0.021970f, 0.011746f, 0.007479f, 0.051769f, -0.011906f, 0.020627f, 0.076288f, -0.046524f, -0.014783f, -0.031439f, -0.061778f, -0.067135f, 0.055375f, -0.067250f, -0.051641f, -0.058163f, 0.004874f, -0.028426f, 0.038768f, 0.014223f, 0.032411f, 0.014078f, -0.031924f, -0.018365f, -0.063618f, 0.006197f, -0.039253f, -0.027119f, -0.031384f, -0.042207f, 0.016051f, 0.063322f, 0.026813f, 0.035313f, 0.032057f, 0.080112f, 0.065805f, -0.067224f, -0.068254f, 0.050308f, 0.075858f, 0.063046f, -0.051590f, -0.006636f, -0.019589f, -0.041545f, 0.022232f, -0.029058f, 0.059580f, -0.050407f, -0.019605f, -0.064501f, -0.028905f, -0.002400f, 0.013721f, -0.035970f, 0.057549f, 0.019149f, -0.058111f, 0.041315f, 0.012298f, -0.036120f, -0.075310f, 0.030954f, 0.031515f, -0.064333f, -0.061420f, -0.010288f, -0.005529f, -0.055883f, -0.030089f, 0.051661f, 0.074942f, -0.079508f, 0.051370f, 0.017895f, 0.062977f, -0.065425f, 0.016287f, 0.038314f, -0.076051f, -0.013992f, 0.077875f, -0.052792f, -0.069925f, 0.048531f, -0.066371f, -0.025153f, -0.066398f, -0.038021f, 0.054345f, 0.020615f, -0.025797f, 0.015353f, 0.063798f, 0.077743f, 0.011021f, 0.012683f, -0.074959f, 0.019289f, -0.071852f, -0.009608f, -0.079834f, 0.031151f, 0.000711f, -0.019503f, -0.014604f, 0.035034f, 0.018536f, 0.029952f, -0.020504f, 0.020973f, -0.031786f, -0.005725f, 0.032570f, 0.051182f, 0.074726f, 0.010373f, -0.051691f, -0.077715f, 0.055799f, 0.020035f, 0.022804f, -0.014463f, 0.055810f, 0.008363f, 0.019167f, -0.005756f, 0.075884f, -0.076513f, 0.029077f, -0.049035f, -0.020544f, -0.009912f, 0.055949f, 0.057307f, 0.050616f, -0.040263f, 0.060013f, -0.009499f, 0.013165f, 0.004549f, 0.008895f, 0.015095f, 0.074755f, -0.064271f, 0.055326f, -0.028426f, -0.018547f, 0.047353f, -0.032882f, 0.071647f, 0.045906f, 0.079288f, 0.028888f, -0.055919f, -0.028914f, -0.049923f, -0.041365f, -0.019179f, 0.049587f, 0.058963f, 0.072645f, -0.001251f, -0.041436f, -0.063985f, -0.043274f, -0.007069f, 0.019756f, -0.057929f, 0.020371f, 0.048590f, 0.030418f, -0.015549f, 0.019146f, -0.075067f, 0.038808f, 0.005841f, 0.033002f, -0.054211f, 0.060672f, 0.024793f, 0.034270f, -0.031550f, 0.020257f, 0.017031f, -0.073402f, 0.052330f, -0.080241f, -0.007716f, -0.024889f, -0.061216f, 0.007848f, -0.004335f, -0.059216f, -0.030450f, -0.046927f, -0.053509f, 0.032852f, -0.079182f, 0.044575f, 0.010817f, -0.047266f, -0.061824f, 0.069854f, -0.074717f, 0.010443f, -0.003662f, -0.022463f, 0.022475f, 0.065274f, -0.054674f, -0.069051f, 0.043816f, -0.056766f, 0.045556f, -0.024684f, -0.026723f, -0.077950f, -0.014881f, 0.034488f, -0.055884f, 0.030098f, 0.021539f, -0.013680f, -0.036395f, -0.031351f, 0.021926f, 0.075140f, -0.011510f, -0.078818f, -0.053223f, -0.054342f, -0.039919f, -0.079098f, -0.027403f, 0.025710f, -0.065404f, 0.010491f, 0.048073f, -0.074658f, -0.015132f, 0.073997f, 0.015142f, -0.077235f, 0.046971f, -0.035205f, 0.042882f, 0.038295f, -0.005890f, -0.034544f, -0.050204f, -0.000154f, 0.057356f, 0.053682f, 0.056065f, -0.073214f, 0.017440f, -0.037747f, -0.008005f, 0.064752f, -0.032316f, 0.068777f, 0.034986f, -0.072243f, 0.006113f, -0.014483f, -0.038311f, -0.040767f, 0.072085f, -0.034869f, -0.049128f, 0.013300f, 0.044426f, 0.052471f, 0.070774f, -0.015278f, 0.043805f, -0.044583f, 0.005625f, 0.053122f, 0.067559f, -0.064954f, -0.054896f, 0.021503f, 0.019600f, -0.052847f, 0.019172f, 0.016207f, 0.000180f, 0.071452f, 0.022543f, 0.053594f, 0.078767f, 0.074622f, -0.058006f, -0.076534f, -0.033337f, -0.000213f, -0.080265f, -0.047936f, -0.042333f, 0.019872f, 0.026367f, 0.051217f, 0.060169f, 0.011170f, -0.018080f, -0.020354f, -0.071565f, -0.054828f, 0.031219f, 0.038943f, -0.078450f, -0.055358f, 0.071592f, -0.058694f, -0.079114f, 0.030036f, 0.022912f, 0.000779f, -0.049642f, 0.048750f, -0.061978f, 0.024315f, -0.016072f, -0.031497f, 0.011271f, 0.065863f, -0.040941f, 0.077821f, 0.055811f, 0.079348f, -0.076289f, -0.029798f, -0.070245f, -0.077119f, -0.056362f, -0.021405f, 0.002379f, -0.012666f, 0.006147f, -0.047373f, -0.015857f, 0.007088f, -0.043028f, -0.014400f, 0.055529f, 0.007732f, 0.052254f, -0.021945f, -0.008994f, -0.029908f, -0.043631f, 0.001257f, -0.054397f, -0.002574f, 0.037824f, 0.056761f, -0.010557f, -0.022210f, -0.002308f, 0.036358f, -0.007348f, -0.014494f, 0.003390f, 0.008107f, 0.028102f, -0.005794f, -0.078373f, -0.045049f, 0.014138f, -0.080925f, 0.034848f, 0.072180f, -0.073628f, 0.073164f, -0.063745f, 0.070186f, -0.075192f, 0.035435f, -0.025041f, 0.080103f, 0.065634f, 0.062278f, -0.029750f, -0.006753f, 0.074770f, -0.044560f, -0.056656f, 0.015595f, -0.008723f, -0.012870f, -0.008145f, 0.073089f, 0.029698f, -0.001348f, 0.010425f, -0.037498f, -0.063400f, -0.023575f, 0.069232f, -0.011559f, 0.075300f, -0.024332f, 0.076012f, -0.076225f, -0.062643f, 0.035383f, -0.065847f, -0.064276f, -0.002423f, 0.005409f, -0.000231f, 0.040333f, 0.064779f, 0.074727f, 0.020293f, 0.000368f, -0.002150f, -0.078080f, -0.053104f, -0.011899f, -0.080614f, -0.064623f, 0.026957f, 0.017868f, 0.059304f, -0.042930f, 0.054382f, 0.062601f, -0.055777f, 0.045623f, 0.051174f, -0.064580f, 0.017750f, 0.061634f, -0.059806f, 0.015468f, -0.021333f, 0.035654f, -0.026022f, 0.015744f, 0.073859f, -0.019599f, -0.012434f, 0.070779f, 0.000830f, -0.022232f, 0.031310f, 0.066321f, 0.020913f, 0.048376f, -0.017684f, -0.078673f, 0.016995f, 0.039300f, 0.071153f, -0.045027f, -0.041480f, -0.062629f, 0.064772f, -0.009833f, 0.001678f, 0.038058f, 0.070015f, -0.006732f, 0.076485f, -0.032734f, 0.007726f, -0.077654f, -0.019855f, -0.002513f, 0.008410f, 0.042202f, -0.041055f, -0.023090f, 0.011926f, -0.066783f, -0.050279f, -0.067233f, -0.055928f, -0.051610f, -0.048283f, -0.026002f, -0.072485f, -0.047267f, -0.013142f, 0.032905f, 0.070835f, -0.015413f, 0.000142f, -0.042297f, -0.044169f, 0.072343f, -0.029142f, -0.011036f, 0.049971f, 0.053809f, -0.020538f, -0.005626f, -0.061513f, -0.077561f, -0.066812f, -0.032255f, -0.033758f, 0.031393f, -0.055325f, -0.067349f, 0.077741f, 0.056417f, -0.071313f, -0.064775f, 0.009962f, 0.053311f, 0.059093f, -0.017433f, -0.036369f, -0.004912f, -0.004365f, -0.048838f, 0.078083f, 0.003913f, 0.001313f, -0.005607f, 0.031145f, 0.063660f, 0.039225f, -0.049847f, 0.026417f, -0.054130f, -0.077114f, -0.040483f, 0.017386f, 0.069011f, 0.018593f, 0.044315f, 0.015958f, 0.070792f, -0.072739f, 0.066297f, -0.050016f, 0.032947f, -0.037517f, -0.023790f, -0.004572f, -0.065205f, -0.034954f, 0.002131f, -0.075208f, 0.035463f, -0.079192f, -0.056202f, 0.022506f, 0.056375f, -0.048107f, 0.031863f, 0.071333f, -0.030246f, -0.021307f, 0.068177f, -0.005814f, 0.068133f, -0.065606f, 0.035583f, -0.004031f, -0.045850f, 0.010579f, -0.076569f, 0.067045f, -0.024209f, 0.012116f, -0.014405f, -0.020766f, -0.056498f, 0.070334f, -0.034852f, -0.054557f, -0.064012f, -0.024886f, -0.071215f, -0.030654f, 0.043799f, -0.054351f, 0.018400f, -0.072587f, 0.059389f, -0.001574f, -0.034763f, -0.057177f, 0.011262f, 0.028174f, -0.080962f, 0.029988f, 0.044019f, 0.050566f, -0.075135f, 0.072844f, -0.050019f, 0.023846f, -0.021044f, -0.015826f, -0.060368f, -0.036266f, 0.073870f, -0.033323f, 0.034212f, 0.012616f, -0.042017f, 0.001336f, -0.010674f, -0.054664f, 0.057975f, -0.016463f, 0.081000f, -0.070299f, 0.048665f, -0.072673f, -0.060448f, 0.075511f, 0.030682f, 0.031270f, -0.054298f, 0.037180f, -0.063828f, 0.007475f, 0.053181f, 0.030358f, 0.073298f, -0.071970f, 0.037042f, -0.067926f, 0.028148f, 0.041041f, 0.077431f, 0.036819f, -0.071728f, 0.012494f, 0.049741f, -0.039444f, 0.018443f, 0.051585f, -0.043550f, -0.013582f, 0.094754f, 0.020918f, 0.007800f, 0.023126f, 0.035127f, -0.066948f, 0.102018f, 0.100290f, -0.018488f, 0.051810f, 0.036228f, -0.025250f, -0.013520f, -0.005140f, -0.038398f, -0.032574f, 0.050581f, -0.041895f, -0.041451f, 0.022434f, -0.019403f, -0.040612f, 0.014309f, -0.052172f, -0.061015f, 0.086629f, 0.056887f, -0.031444f, -0.026590f, 0.004979f, -0.010662f, -0.075122f, -0.058966f, 0.001618f, 0.040224f, 0.075422f, 0.056945f, 0.046432f, 0.056307f, 0.034930f, -0.063517f, 0.000955f, -0.014366f, 0.005554f, 0.064384f, 0.017281f, 0.072109f, 0.015026f, 0.018943f, -0.070426f, -0.027246f, -0.019551f, -0.025862f, 0.042162f, 0.087499f, -0.046942f, 0.033494f, 0.011129f, 0.020369f, -0.026129f, 0.017434f, 0.067313f, -0.019541f, 0.027925f, 0.068263f, -0.055479f, 0.010914f, -0.023900f, 0.092117f, 0.026809f, -0.070089f, -0.043747f, -0.065836f, -0.012404f, 0.065935f, 0.062941f, 0.026864f, 0.079840f, 0.026446f, 0.082114f, 0.046653f, -0.042895f, -0.027113f, 0.090603f, -0.006982f, 0.024944f, 0.017203f, 0.016881f, 0.054150f, 0.036756f, 0.076576f, 0.028505f, -0.020691f, 0.016208f, 0.030059f, -0.018239f, -0.046427f, 0.090551f, -0.047002f, -0.011297f, -0.059692f, -0.049111f, -0.018929f, -0.050800f, 0.019035f, 0.040329f, -0.087053f, 0.037152f, 0.088255f, 0.028079f, -0.004273f, 0.005180f, -0.076814f, 0.030021f, -0.030528f, -0.044370f, 0.014829f, 0.001629f, -0.021417f, 0.035808f, 0.053654f, -0.035691f, 0.051063f, -0.006891f, 0.072185f, 0.054170f, 0.051878f, 0.062045f, -0.037869f, -0.001188f, 0.025291f, 0.072430f, 0.043045f, -0.036281f, 0.098212f, 0.002177f, -0.031679f, -0.003144f, -0.039767f, 0.014912f, 0.011305f, 0.074765f, -0.043277f, 0.058099f, 0.024669f, 0.012551f, 0.038564f, 0.003684f, -0.023665f, -0.033051f, -0.026405f, -0.046939f, 0.061062f, -0.005445f, -0.007467f, 0.097690f, 0.024303f, -0.064422f, -0.023352f, -0.075206f, -0.058940f, 0.097955f, 0.072404f, 0.079320f, -0.004161f, 0.042701f, 0.001167f, 0.102903f, -0.046016f, 0.022590f, -0.018963f, -0.024751f, -0.054941f, 0.084331f, 0.005868f, 0.010338f, 0.017155f, -0.073175f, 0.042124f, -0.000857f, -0.008571f, -0.068727f, 0.039924f, -0.069911f, 0.004947f, 0.025422f, -0.031128f, 0.016023f, -0.030165f, 0.021171f, -0.051418f, -0.073638f, 0.035630f, 0.058333f, -0.026970f, -0.058666f, 0.067988f, -0.057158f, -0.043988f, -0.010052f, 0.058889f, -0.014270f, -0.059877f, -0.014038f, -0.061490f, 0.089903f, 0.073578f, 0.037535f, -0.068015f, -0.047995f, 0.063105f, 0.022081f, -0.059742f, -0.055152f, 0.026967f, -0.048551f, -0.063881f, 0.003447f, 0.007953f, 0.011137f, 0.001891f, -0.054695f, 0.043628f, -0.028854f, -0.081695f, -0.047917f, 0.001158f, 0.052992f, -0.005711f, 0.088698f, -0.077389f, 0.122160f, -0.043235f, 0.065866f, 0.045292f, 0.002212f, 0.070656f, -0.020178f, 0.004412f, 0.024660f, -0.068279f, -0.053581f, -0.045145f, 0.001243f, -0.049879f, 0.063656f, 0.058367f, 0.078270f, 0.070450f, -0.016566f, 0.017665f, 0.041679f, 0.071634f, -0.040084f, -0.010031f, 0.052096f, 0.052894f, 0.059656f, -0.015078f, -0.039450f, -0.049428f, 0.056478f, -0.074776f, -0.032060f, -0.044678f, 0.000860f, -0.053038f, -0.006410f, -0.003682f, -0.043145f, 0.001183f, -0.077890f, -0.098272f, -0.025481f, -0.030809f, -0.025070f, -0.011925f, -0.027959f, 0.004935f, 0.080911f, -0.056613f, 0.029541f, 0.035066f, -0.069556f, -0.032520f, 0.050335f, -0.040803f, -0.020452f, -0.041598f, 0.021242f, 0.003078f, 0.050910f, 0.029193f, -0.050134f, -0.062996f, -0.008477f, -0.094498f, 0.032305f, -0.007645f, 0.068769f, 0.007896f, -0.021050f, -0.080321f, -0.025500f, 0.022448f, -0.008538f, 0.102325f, -0.053366f, 0.024176f, 0.042252f, -0.028167f, -0.065262f, -0.030342f, -0.054334f, -0.074420f, -0.024018f, 0.064051f, 0.068029f, 0.093797f, -0.059137f, 0.032660f, -0.034951f, 0.021880f, -0.013641f, 0.074924f, -0.053543f, 0.043665f, 0.023768f, 0.032962f, 0.017612f, -0.004532f, 0.039506f, -0.041338f, 0.102050f, -0.037494f, -0.066673f, 0.035942f, 0.055079f, 0.033703f, -0.007518f, 0.075569f, -0.053199f, -0.004944f, 0.047456f, 0.001452f, 0.042828f, -0.013476f, 0.053136f, 0.005776f, 0.021459f, 0.036011f, 0.056387f, 0.051649f, 0.099213f, 0.007320f, 0.016558f, -0.024004f, 0.008686f, 0.025378f, 0.065480f, -0.077725f, -0.051662f, 0.002045f, 0.051164f, -0.026762f, -0.039561f, -0.054162f, 0.071546f, 0.046978f, 0.006372f, -0.022922f, -0.006220f, 0.043032f, -0.070965f, -0.023436f, 0.073261f, -0.077754f, 0.029657f, 0.069730f, -0.052977f, -0.001809f, 0.038596f, -0.004499f, 0.001211f, -0.079098f, -0.039828f, 0.065020f, 0.053167f, 0.043700f, -0.002027f, -0.039587f, 0.073359f, -0.018190f, 0.029905f, -0.075868f, -0.047537f, -0.022865f, 0.039858f, -0.015659f, -0.000717f, 0.007309f, 0.046926f, 0.024357f, 0.079965f, 0.046570f, 0.074998f, -0.025682f, 0.046246f, 0.008491f, 0.002753f, 0.026070f, -0.056103f, -0.055314f, 0.047606f, 0.056398f, -0.023950f, 0.065976f, -0.032049f, -0.031530f, -0.081076f, -0.051890f, -0.010766f, 0.001579f, -0.065367f, -0.016709f, 0.041233f, 0.031034f, 0.041604f, -0.030463f, -0.043695f, -0.077717f, 0.023674f, -0.002932f, -0.047143f, 0.049391f, -0.051181f, -0.011471f, 0.061701f, -0.090882f, 0.036434f, -0.068069f, -0.030764f, 0.039685f, -0.034080f, -0.051675f, 0.023892f, 0.032293f, -0.058819f, -0.026481f, -0.046212f, 0.018790f, -0.018388f, -0.071429f, 0.071893f, -0.057788f, -0.015337f, 0.046306f, 0.038145f, 0.070121f, -0.077658f, 0.021804f, 0.046423f, 0.074748f, -0.036004f, -0.031807f, -0.010307f, 0.021810f, 0.042288f, 0.028274f, 0.019697f, 0.062211f, 0.026721f, -0.050768f, -0.022210f, 0.009287f, 0.025996f, 0.076341f, 0.077690f, -0.087587f, 0.005661f, 0.047954f, 0.055426f, -0.010487f, -0.024475f, -0.033757f, -0.070742f, 0.024801f, 0.051941f, -0.008592f, -0.017248f, 0.069623f, -0.061294f, 0.054028f, -0.010873f, -0.053188f, -0.010766f, 0.057626f, 0.039648f, -0.036126f, -0.072274f, -0.039694f, 0.014311f, -0.060136f, 0.018513f, -0.038269f, 0.023819f, -0.033896f, -0.040763f, -0.079278f, -0.077846f, 0.052238f, -0.052450f, 0.075008f, 0.054470f, 0.079705f, -0.056665f, -0.039546f, -0.051389f, 0.012607f, -0.035817f, -0.041144f, 0.021793f, 0.002009f, -0.058513f, -0.023039f, 0.079693f, -0.023689f, 0.062278f, -0.028398f, -0.008419f, 0.038913f, -0.053030f, -0.024479f, -0.031665f, -0.079627f, -0.072324f, 0.016547f, 0.066221f, -0.072511f, -0.026802f, -0.011483f, -0.078637f, 0.071629f, -0.049634f, 0.026827f, 0.001273f, 0.048939f, -0.050268f, -0.060884f, 0.039823f, -0.047929f, 0.028966f, -0.080174f, -0.027205f, 0.066366f, 0.041757f, 0.025399f, 0.057983f, -0.080979f, 0.052856f, 0.023960f, -0.007230f, -0.051679f, -0.070802f, 0.017062f, 0.079617f, -0.035853f, 0.054583f, -0.035131f, 0.045804f, -0.027448f, 0.014945f, 0.025793f, -0.052553f, -0.064018f, 0.079617f, 0.052024f, 0.064214f, 0.076107f, -0.006652f, 0.052174f, -0.035175f, -0.001526f, -0.039612f, -0.036872f, 0.056284f, -0.020122f, 0.005069f, 0.059108f, 0.026831f, -0.060518f, 0.030473f, 0.066551f, 0.005696f, -0.039465f, 0.014603f, 0.053307f, -0.045171f, 0.019828f, -0.039683f, 0.005104f, -0.042938f, -0.048296f, -0.024714f, -0.036627f, 0.069135f, -0.010577f, 0.061755f, 0.024874f, -0.031655f, 0.032378f, 0.011807f, -0.061403f, -0.073223f, -0.050511f, 0.056876f, 0.004710f, -0.000131f, 0.045803f, -0.034745f, 0.049124f, 0.080902f, 0.075573f, 0.057740f, -0.040504f, -0.029741f, 0.004706f, -0.004234f, 0.016563f, -0.077930f, -0.073741f, -0.050569f, -0.006411f, -0.072440f, -0.005773f, 0.056867f, -0.081109f, 0.014359f, -0.067724f, -0.009854f, -0.067424f, -0.026214f, 0.021128f, 0.066897f, 0.011837f, -0.032892f, 0.034637f, -0.077212f, -0.022115f, 0.047089f, -0.069562f, -0.076605f, 0.012594f, -0.004755f, 0.033429f, -0.045366f, 0.017144f, 0.045088f, 0.026389f, -0.001961f, 0.059656f, -0.078448f, -0.018641f, 0.073188f, 0.017081f, 0.040324f, -0.079295f, -0.031623f, -0.018878f, -0.019473f, -0.015048f, -0.023610f, 0.064538f, -0.056755f, -0.071375f, 0.042028f, -0.027269f, -0.015036f, -0.009925f, 0.017688f, 0.058131f, 0.022166f, -0.037585f, 0.021077f, 0.004984f, -0.004505f, -0.076809f, 0.074587f, -0.053897f, 0.074895f, -0.067257f, -0.063211f, 0.066103f, -0.045976f, -0.059185f, -0.079647f, 0.067610f, 0.069430f, 0.020587f, 0.011445f, -0.054862f, -0.019582f, -0.034832f, 0.001824f, -0.036566f, 0.044300f, -0.075379f, -0.016842f, 0.017121f, -0.041648f, 0.057399f, 0.028361f, -0.012029f, 0.079835f, -0.014496f, -0.012904f, 0.032428f, -0.061837f, -0.039003f, 0.008723f, -0.070877f, 0.046378f, 0.028961f, -0.010781f, -0.068940f, 0.068294f, -0.067529f, 0.064589f, -0.020158f, -0.007154f, 0.069398f, 0.071648f, 0.033436f, 0.001429f, -0.078136f, -0.063211f, -0.065203f, -0.045444f, 0.070210f, 0.045619f, -0.031633f, 0.006085f, -0.011316f, 0.049695f, -0.058604f, 0.044833f, 0.037934f, 0.078209f, -0.019674f, -0.040581f, -0.006263f, -0.075763f, 0.023327f, -0.004033f, 0.011511f, 0.074631f, 0.040491f, 0.072138f, 0.000998f, 0.048432f, -0.020872f, 0.039577f, -0.079158f, -0.016214f, 0.002113f, -0.050495f, 0.022628f, -0.062565f, 0.031983f, 0.033028f, -0.012079f, 0.011342f, 0.024404f, -0.054364f, -0.063594f, 0.011632f, -0.016272f, -0.055831f, 0.010191f, 0.005745f, 0.075696f, 0.005541f, 0.017057f, 0.054295f, 0.041513f, -0.059924f, 0.006647f, 0.024971f, 0.034851f, 0.059590f, 0.003921f, -0.019447f, -0.019363f, 0.026480f, 0.011975f, -0.066169f, -0.067502f, 0.031765f, 0.049288f, 0.059301f, 0.064643f, 0.005199f, 0.033921f, 0.019584f, 0.064325f, 0.064924f, 0.064493f, 0.037047f, -0.030951f, -0.048065f, -0.043242f, 0.071418f, -0.022334f, 0.003509f, 0.014070f, 0.062534f, 0.072962f, 0.043107f, -0.019414f, 0.050225f, -0.029715f, -0.045683f, -0.007819f, -0.025438f, -0.002506f, -0.012194f, -0.057167f, -0.009802f, 0.073574f, -0.044562f, 0.017273f, 0.023580f, -0.050703f, 0.019608f, 0.074243f, -0.070793f, 0.039154f, 0.012266f, 0.037950f, -0.066644f, 0.061895f, -0.004628f, 0.049221f, 0.066521f, -0.024301f, 0.043901f, 0.010764f, -0.049995f, 0.007761f, 0.037782f, -0.066067f, -0.023659f, 0.070885f, 0.052610f, 0.041797f, -0.027502f, 0.024305f, 0.040192f, 0.043030f, 0.070826f, -0.033374f, 0.063355f, -0.063815f, -0.062401f, 0.051228f, -0.065175f, 0.041382f, -0.051934f, 0.041828f, 0.058347f, -0.025881f, -0.059306f, 0.040614f, -0.075586f, -0.047407f, -0.038131f, 0.006015f, -0.053055f, 0.029323f, -0.015290f, -0.047563f, -0.076965f, -0.000453f, -0.000324f, -0.004612f, 0.045029f, 0.047227f, 0.046486f, 0.019771f, 0.001598f, 0.016208f, -0.032508f, 0.035552f, 0.030629f, -0.039435f, -0.073285f, 0.045087f, -0.012660f, -0.053381f, 0.027959f, -0.028623f, -0.025901f, -0.072152f, 0.033942f, -0.053760f, -0.026031f, -0.066273f, 0.019798f, -0.004287f, 0.007097f, 0.003680f, -0.054821f, -0.019275f, 0.074172f, -0.030406f, -0.047925f, 0.033453f, -0.053118f, -0.047007f, -0.034356f, -0.009440f, 0.040580f, -0.009787f, -0.073879f, 0.027291f, 0.007172f, 0.009181f, 0.077025f, 0.062940f, -0.077081f, -0.001583f, 0.066150f, 0.015325f, -0.071806f, 0.014564f, 0.080810f, -0.043358f, -0.026201f, -0.039035f, -0.009908f, 0.039050f, -0.013955f, -0.019771f, -0.041847f, -0.029390f, 0.078100f, 0.042419f, 0.026833f, 0.044250f, -0.012083f, -0.004377f, 0.008257f, -0.047541f, 0.072643f, 0.049709f, -0.036324f, 0.016950f, 0.039123f, 0.052914f, -0.036603f, 0.076118f, -0.007089f, -0.030806f, -0.052812f, -0.074757f, -0.037636f, 0.066328f, -0.057574f, 0.024873f, -0.080793f, -0.066320f, -0.046444f, 0.059724f, -0.053739f, 0.046464f, -0.068688f, -0.041474f, -0.044998f, 0.030778f, 0.076231f, 0.020255f, -0.046553f, 0.041051f, 0.074796f, -0.038356f, 0.032848f, 0.000572f, -0.038045f, 0.057697f, 0.036405f, -0.019734f, -0.004785f, 0.008590f, 0.027118f, -0.028146f, 0.019215f, -0.061524f, -0.035819f, -0.063435f, -0.078914f, -0.042520f, 0.005136f, -0.077089f, 0.052425f, 0.071463f, 0.001849f, 0.033040f, -0.057871f, 0.023778f, -0.040876f, -0.008514f, 0.042900f, -0.021513f, -0.022052f, 0.060048f, -0.035143f, -0.063290f, 0.064065f, 0.031780f, -0.078764f, 0.006315f, 0.080018f, 0.079638f, -0.010874f, -0.042930f, -0.001996f, 0.009436f, -0.074522f, -0.028075f, 0.004745f, -0.065955f, 0.021920f, 0.017471f, 0.070561f, -0.014303f, 0.077133f, -0.031387f, -0.041062f, 0.034224f, 0.024829f, 0.017053f, 0.037480f, 0.016410f, -0.061135f, -0.027608f, 0.026729f, -0.007365f, 0.047690f, 0.023458f, 0.073878f, 0.009025f, 0.043076f, -0.056411f, -0.025063f, -0.038253f, 0.043141f, -0.048841f, -0.017472f, 0.027841f, 0.059044f, -0.080585f, -0.021207f, -0.020034f, 0.018763f, -0.015788f, 0.034765f, 0.051542f, 0.067515f, 0.049293f, -0.077560f, -0.023264f, 0.049164f, -0.006752f, -0.021426f, 0.039656f, 0.038749f, 0.004720f, 0.030926f, -0.007569f, -0.023735f, 0.051772f, 0.052144f, 0.055506f, 0.052892f, 0.003109f, -0.068133f, 0.031254f, -0.048009f, 0.078880f, 0.079914f, -0.036155f, 0.005457f, 0.031602f, 0.038733f, -0.039811f, -0.074833f, 0.003591f, 0.076818f, 0.063045f, -0.031380f, -0.052951f, 0.041157f, -0.009756f, -0.020188f, -0.009234f, 0.013413f, -0.003126f, 0.003662f, 0.043761f, -0.008842f, -0.030152f, 0.025144f, -0.037576f, 0.015237f, -0.050259f, -0.043934f, 0.030932f, 0.030623f, -0.042126f, 0.015848f, -0.074305f, -0.068825f, -0.045071f, 0.076852f, -0.026427f, 0.027190f, 0.049402f, -0.045263f, 0.019972f, -0.037612f, -0.073626f, 0.051222f, -0.019647f, 0.063660f, 0.070449f, 0.009768f, -0.050322f, 0.048391f, 0.007236f, -0.011031f, 0.019687f, -0.041180f, -0.059320f, 0.002584f, 0.055983f, -0.067336f, 0.051630f, 0.046991f, 0.042360f, -0.023438f, 0.077385f, -0.000227f, 0.020961f, 0.073502f, -0.018974f, 0.062988f, -0.012552f, -0.030275f, 0.022476f, 0.031262f, -0.074302f, 0.047700f, 0.007121f, 0.016613f, 0.000854f, -0.032651f, 0.049382f, -0.061311f, -0.081037f, -0.006502f, -0.054518f, 0.065516f, 0.073917f, -0.067437f, -0.072341f, 0.029430f, 0.024122f, -0.070163f, -0.012108f, -0.061564f, -0.037361f, 0.013317f, -0.056882f, -0.044012f, 0.009209f, 0.004740f, 0.006930f, -0.018806f, -0.033922f, 0.039284f, 0.037808f, -0.036139f, -0.071534f, -0.017025f, -0.061877f, -0.053502f, -0.042762f, 0.074462f, -0.023768f, -0.052615f, -0.061734f, -0.019946f, -0.048108f, -0.046920f, 0.015629f, 0.001943f, -0.009382f, -0.064366f, 0.021314f, 0.027165f, -0.047430f, 0.032369f, 0.007415f, 0.022462f, 0.056920f, -0.015670f, -0.054860f, 0.045020f, -0.059202f, -0.077401f, -0.037307f, -0.047308f, -0.047088f, 0.044322f, 0.004513f, -0.066979f, 0.075942f, 0.019340f, 0.028239f, -0.040105f, 0.059931f, 0.052082f, -0.003733f, -0.067060f, -0.075824f, -0.040229f, -0.060572f, -0.047053f, 0.071409f, 0.072849f, -0.040271f, 0.077219f, 0.062645f, 0.002907f, -0.023920f, 0.042142f, 0.044646f, 0.050888f, -0.029818f, 0.032164f, -0.055666f, 0.035572f, -0.053604f, -0.050800f, 0.065204f, 0.001625f, -0.003795f, -0.040899f, -0.071609f, -0.031364f, 0.034670f, 0.058810f, 0.012752f, -0.024132f, -0.077273f, 0.054658f, 0.077267f, -0.007793f, 0.018073f, -0.006158f, -0.050323f, -0.058393f, -0.075293f, 0.080807f, -0.064991f, -0.058123f, 0.048026f, 0.027237f, -0.026172f, 0.047568f, 0.017605f, -0.046051f, -0.017582f, 0.062677f, -0.040023f, 0.006492f, 0.000888f, -0.076087f, -0.031314f, -0.052887f, 0.062527f, -0.061776f, 0.067615f, -0.003814f, -0.080462f, -0.068352f, 0.053220f, -0.058138f, -0.056157f, 0.049930f, 0.081024f, 0.011849f, -0.067679f, -0.000825f, 0.036228f, 0.062572f, 0.054849f, -0.025765f, -0.048371f, -0.002207f, -0.072952f, -0.037625f, -0.007094f, 0.046383f, -0.058148f, -0.014111f, 0.045864f, -0.021323f, 0.038996f, 0.076996f, -0.025753f, -0.074393f, -0.027185f, -0.080127f, -0.042614f, -0.067547f, 0.066240f, 0.022990f, 0.056924f, -0.004601f, -0.043153f, 0.007878f, 0.035353f, -0.063759f, 0.043356f, -0.068959f, 0.029129f, 0.080475f, 0.033549f, -0.024562f, 0.059965f, -0.008778f, -0.023119f, -0.058907f, -0.035710f, -0.016712f, 0.057468f, -0.074579f, -0.024468f, -0.003920f, 0.060180f, 0.012438f, -0.055344f, 0.024729f, 0.065701f, -0.013783f, -0.073146f, 0.047169f, 0.054682f, -0.070826f, 0.040037f, -0.020492f, 0.014093f, -0.027338f, -0.015700f, 0.078336f, -0.043125f, 0.068516f, 0.035255f, 0.043535f, 0.047978f, -0.062060f, 0.077501f, 0.014378f, -0.029035f, -0.071881f, 0.080271f, 0.067083f, -0.063932f, 0.014138f, -0.008699f, 0.024070f, 0.009888f, 0.064257f, 0.067208f, -0.021200f, 0.058674f, -0.014340f, -0.004914f, -0.016530f, 0.012755f, -0.072310f, -0.055057f, 0.037350f, 0.008989f, 0.048462f, 0.027184f, -0.000461f, -0.072144f, 0.063501f, -0.006761f, -0.052120f, 0.015613f, 0.025382f, 0.071917f, -0.067929f, 0.025912f, -0.004226f, 0.055435f, 0.042776f, 0.078772f, 0.049313f, 0.050911f, 0.034269f, -0.047435f, -0.011823f, 0.010966f, -0.047203f, 0.072568f, -0.019434f, -0.037407f, -0.006053f, 0.066383f, -0.002994f, -0.052813f, -0.061813f, -0.055567f, 0.006493f, 0.029185f, 0.031506f, -0.010818f, 0.038703f, 0.030603f, -0.029692f, -0.058740f, 0.080412f, -0.050555f, -0.007863f, -0.054112f, -0.039075f, -0.016600f, 0.008171f, -0.049074f, 0.022133f, -0.054207f, 0.045140f, 0.012958f, 0.035716f, -0.044375f, 0.025925f, 0.039226f, -0.069481f, 0.006087f, -0.047847f, 0.068778f, 0.025434f, -0.012551f, 0.069302f, 0.025655f, 0.027931f, -0.078707f, 0.048980f, 0.039181f, -0.041595f, -0.057974f, 0.001633f, -0.009307f, -0.018469f, -0.028624f, -0.022902f, 0.021400f, 0.029286f, -0.075697f, -0.054325f, -0.044145f, -0.026458f, 0.054369f, 0.068846f, 0.079847f, 0.008744f, 0.032630f, 0.042531f, -0.036383f, 0.001803f, 0.022509f, -0.007464f, -0.072632f, -0.039609f, -0.005567f, 0.080508f, -0.071308f, -0.074246f, 0.040094f, -0.072946f, 0.028889f, -0.041321f, 0.005171f, 0.002899f, 0.070720f, 0.004499f, -0.054588f, 0.011636f, 0.066555f, -0.051725f, -0.036006f, 0.006773f, 0.016767f, 0.017075f, 0.021368f, -0.042685f, 0.056348f, -0.048255f, 0.033961f, -0.030539f, -0.020937f, 0.062384f, -0.046691f, -0.059723f, -0.049173f, -0.017786f, 0.036633f, -0.063173f, -0.064540f, -0.055269f, 0.001231f, 0.009235f, -0.048231f, -0.029062f, -0.026927f, -0.006889f, -0.062364f, -0.060051f, -0.029112f, 0.024398f, 0.048182f, 0.059554f, -0.066480f, -0.072436f, 0.021163f, -0.045983f, -0.028900f, -0.013621f, 0.077552f, -0.009072f, 0.078722f, 0.018261f, -0.010075f, 0.020650f, 0.034027f, -0.064999f, 0.066172f, 0.075289f, -0.002315f, -0.045356f, 0.000733f, 0.026846f, 0.020805f, 0.024962f, 0.005711f, 0.073707f, 0.035689f, -0.053101f, 0.035259f, 0.012912f, 0.076001f, -0.015744f, 0.047117f, -0.012830f, -0.017005f, -0.080534f, 0.020682f, 0.033324f, -0.065848f, 0.023635f, 0.007673f, 0.067213f, 0.051954f, -0.030305f, -0.077363f, -0.036308f, 0.050653f, -0.036642f, 0.057626f, -0.045654f, -0.077910f, 0.058643f, 0.047731f, -0.053717f, -0.024699f, -0.059782f, -0.026552f, 0.048834f, -0.066587f, 0.016889f, 0.048626f, 0.044286f, 0.046636f, 0.010787f, 0.071488f, -0.057317f, 0.032159f, -0.015591f, 0.014746f, -0.015506f, -0.027134f, -0.037840f, 0.002021f, 0.028972f, 0.007592f, -0.038518f, -0.068240f, -0.023364f, 0.062491f, -0.031122f, -0.013307f, 0.045025f, -0.066335f, 0.055997f, -0.077847f, -0.025398f, -0.021455f, -0.014231f, 0.075312f, -0.010127f, 0.042631f, 0.068249f, 0.031571f, -0.058410f, 0.078052f, 0.069674f, -0.005969f, -0.033525f, 0.021874f, -0.061637f, 0.054359f, 0.023299f, -0.068857f, 0.056736f, 0.022056f, 0.018995f, -0.046449f, 0.067311f, -0.055694f, 0.065305f, -0.043022f, -0.041279f, -0.023884f, -0.004435f, 0.065675f, 0.006632f, -0.065395f, -0.058632f, 0.025202f, -0.031976f, 0.004034f, -0.009263f, 0.072414f, -0.005228f, -0.057414f, -0.031467f, -0.011248f, -0.052968f, 0.022984f, 0.023470f, -0.055928f, 0.013531f, -0.063235f, -0.012320f, 0.054066f, 0.074333f, -0.020477f, 0.072630f, 0.053582f, 0.020536f, 0.025757f, -0.047390f, 0.011929f, -0.006214f, 0.034494f, -0.018634f, 0.080130f, 0.026087f, 0.015327f, -0.050064f, -0.004601f, 0.033527f, -0.035011f, -0.019965f, 0.042780f, -0.048119f, 0.057342f, 0.078245f, 0.073540f, -0.074249f, -0.040445f, 0.075305f, -0.070926f, -0.069873f, -0.024918f, -0.051296f, -0.078042f, -0.009808f, 0.037647f, 0.071801f, -0.071356f, -0.016357f, -0.013502f, -0.005528f, 0.018166f, 0.055692f, 0.029680f, 0.074146f, -0.036856f, -0.043087f, -0.051741f, 0.049419f, 0.055408f, -0.024331f, -0.073062f, -0.068266f, 0.069700f, 0.023956f, 0.056761f, -0.065512f, 0.034062f, -0.052888f, 0.005854f, 0.045481f, -0.002271f, 0.025235f, 0.046020f, 0.039562f, 0.042278f, -0.010993f, 0.054927f, -0.012061f, 0.080165f, 0.043697f, -0.079470f, -0.003793f, -0.069850f, 0.059305f, 0.046680f, 0.071558f, -0.009902f, 0.001669f, 0.063007f, -0.051479f, -0.045417f, 0.042615f, -0.020115f, -0.080655f, -0.030500f, 0.054102f, 0.034785f, 0.000984f, -0.006277f, 0.048311f, 0.037651f, -0.006605f, -0.051997f, -0.056091f, -0.036125f, -0.053155f, 0.058646f, 0.032324f, 0.055728f, -0.045841f, -0.009559f, 0.056300f, -0.029863f, 0.019755f, -0.050974f, -0.068031f, 0.056240f, 0.076217f, -0.054613f, -0.035645f, 0.071077f, -0.039323f, -0.078772f, -0.062639f, -0.051844f, 0.006746f, -0.021906f, 0.052439f, -0.020269f, 0.006756f, 0.005039f, 0.054586f, -0.075451f, 0.002256f, -0.044586f, 0.046154f, -0.052981f, 0.017111f, 0.029688f, -0.000573f, 0.071557f, 0.034985f, -0.055213f, 0.044264f, -0.007029f, 0.042670f, -0.003161f, 0.072462f, 0.046010f, 0.007087f, 0.056622f, 0.034781f, -0.053835f, -0.074920f, 0.042987f, -0.007261f, -0.009029f, 0.061626f, 0.052834f, -0.006084f, -0.028365f, 0.058729f, 0.051891f, -0.008178f, 0.023144f, 0.014128f, -0.029625f, -0.064851f, -0.041620f, -0.076851f, 0.070462f, 0.062079f, 0.052091f, 0.040373f, -0.029686f, 0.078960f, 0.018742f, -0.016763f, -0.038998f, -0.028501f, 0.035829f, -0.037712f, -0.011490f, 0.029948f, 0.060285f, -0.036207f, -0.048393f, -0.059754f, -0.016559f, -0.016999f, -0.048305f, -0.061265f, 0.044855f, 0.067564f, 0.036528f, 0.041098f, 0.023134f, -0.013506f, 0.053430f, 0.011566f, 0.006937f, -0.019304f, 0.069883f, 0.064263f, -0.018666f, 0.009632f, -0.045193f, -0.073035f, -0.005960f, -0.065830f, -0.058510f, 0.064175f, -0.080326f, 0.069298f, 0.063171f, 0.077288f, 0.078204f, -0.062063f, 0.013148f, 0.059781f, -0.028003f, 0.005716f, -0.077780f, -0.018516f, -0.076826f, -0.049880f, -0.069971f, -0.027722f, 0.072674f, 0.055238f, 0.055300f, -0.019074f, -0.062151f, -0.015096f, 0.015228f, 0.071325f, -0.067966f, -0.034204f, 0.026583f, 0.023034f, 0.058067f, -0.020724f, 0.006648f, -0.076249f, 0.041876f, 0.077610f, 0.037397f, -0.040995f, -0.048052f, -0.036212f, 0.035110f, -0.019834f, 0.050289f, 0.047038f, 0.053705f, 0.003448f, -0.027427f, 0.051950f, 0.017193f, 0.078703f, 0.043891f, -0.067170f, -0.041593f, 0.054208f, -0.010857f, 0.025890f, 0.076965f, 0.057140f, -0.066425f, -0.063113f, -0.035215f, -0.000766f, 0.063400f, -0.075856f, -0.019026f, 0.014109f, -0.030172f, 0.013344f, 0.003651f, 0.021093f, -0.063035f, -0.073153f, 0.043759f, -0.041878f, -0.045358f, -0.041759f, 0.035343f, 0.063565f, -0.053028f, 0.059505f, 0.049385f, 0.073351f, -0.039025f, 0.042734f, -0.025586f, -0.067073f, 0.029838f, 0.021728f, 0.036183f, 0.069718f, 0.068408f, 0.045640f, -0.004262f, 0.071474f, -0.040715f, 0.040900f, -0.028288f, -0.048258f, -0.051442f, 0.010105f, 0.014088f, 0.045351f, -0.054473f, 0.057089f, -0.006930f, -0.050258f, -0.039612f, -0.040455f, 0.020929f, -0.003354f, -0.045292f, 0.053888f, 0.000331f, -0.040678f, -0.004654f, 0.074677f, 0.061579f, 0.011418f, -0.041227f, -0.033221f, 0.017395f, 0.022939f, -0.064426f, 0.072456f, 0.034767f, 0.021984f, -0.034388f, -0.021969f, 0.003027f, -0.015145f, -0.034167f, -0.080855f, 0.045076f, -0.059437f, 0.007992f, -0.069766f, -0.028783f, 0.031594f, -0.054649f, -0.066003f, 0.059828f, -0.012673f, 0.051760f, -0.054111f, 0.036691f, -0.028854f, -0.043295f, -0.040001f, 0.003995f, -0.014613f, 0.005050f, 0.032317f, -0.031629f, 0.063308f, -0.071666f, -0.069884f, 0.037762f, -0.057155f, 0.013504f, 0.041056f, -0.020434f, 0.010012f, 0.070084f, -0.035075f, -0.005092f, 0.036432f, -0.008492f, 0.046216f, 0.058355f, -0.037075f, 0.056720f, -0.051243f, 0.048516f, 0.067138f, -0.049160f, -0.060896f, -0.064763f, -0.061840f, -0.013929f, 0.002044f, 0.062167f, 0.001311f, -0.060902f, 0.036946f, 0.037804f, 0.016505f, -0.041938f, 0.017480f, 0.022235f, -0.077110f, -0.075754f, -0.058632f, -0.074252f, 0.039299f, -0.066755f, -0.005017f, 0.079402f, -0.065668f, 0.067098f, -0.058161f, -0.025839f, 0.079039f, 0.003656f, 0.028172f, -0.071985f, -0.027456f, -0.004378f, -0.053185f, -0.051731f, -0.045371f, 0.035917f, 0.038672f, 0.011139f, -0.065851f, -0.032501f, -0.069878f, -0.073147f, 0.050485f, 0.005995f, 0.013972f, -0.055665f, 0.022548f, 0.046139f, -0.000795f, 0.039269f, -0.004809f, -0.042796f, -0.040550f, -0.077070f, 0.012068f, -0.012845f, 0.077865f, -0.041640f, 0.067254f, 0.008861f, 0.026084f, 0.020126f, 0.023496f, -0.046262f, -0.040671f, -0.070057f, 0.027798f, 0.007746f, -0.063700f, -0.026403f, 0.022036f, 0.029229f, 0.007691f, -0.044496f, -0.052624f, 0.034742f, -0.029609f, -0.039282f, -0.010995f, 0.038840f, -0.077608f, 0.059513f, -0.015268f, 0.054233f, -0.061241f, -0.065370f, -0.077917f, 0.018755f, 0.059936f, 0.078641f, 0.028617f, 0.071499f, 0.012549f, 0.039102f, -0.025428f, -0.070776f, -0.042122f, -0.010603f, -0.029470f, -0.038538f, 0.071882f, -0.008163f, -0.038228f, 0.059619f, -0.039755f, -0.022994f, 0.041401f, 0.039018f, -0.070763f, -0.035185f, 0.063341f, -0.042999f, -0.041020f, -0.048070f, -0.078693f, 0.020295f, 0.051393f, -0.008181f, -0.043285f, -0.010128f, -0.030622f, -0.027316f, 0.039162f, -0.075478f, 0.035449f, 0.032068f, 0.035805f, -0.046010f, -0.057181f, 0.025719f, -0.055777f, 0.079849f, 0.049013f, 0.051923f, 0.038454f, 0.079059f, 0.061579f, -0.001376f, -0.038445f, -0.030672f, 0.060134f, 0.040410f, -0.051981f, -0.017412f, -0.061727f, -0.023269f, 0.075132f, 0.079240f, 0.026864f, -0.040619f, 0.019429f, -0.033921f, 0.030798f, -0.001440f, -0.038552f, 0.016012f, -0.019736f, -0.041219f, 0.039435f, 0.034899f, -0.061066f, 0.079891f, 0.034539f, 0.032814f, 0.032846f, -0.019601f, 0.026424f, -0.023439f, 0.071863f, 0.044922f, 0.041692f, 0.034999f, -0.070928f, -0.017159f, -0.010870f, -0.028359f, 0.078273f, 0.022950f, -0.039249f, 0.073890f, 0.030928f, -0.048972f, -0.019748f, -0.023652f, -0.071279f, 0.006557f, 0.058816f, -0.049156f, -0.031956f, -0.047232f, 0.071960f, 0.004303f, -0.020141f, 0.042367f, -0.068642f, 0.031649f, -0.030311f, -0.028803f, -0.022332f, -0.065223f, -0.032289f, -0.015733f, 0.021614f, -0.034766f, -0.015271f, 0.010665f, -0.009614f, 0.020383f, 0.039686f, -0.067471f, -0.013204f, 0.009234f, -0.076435f, 0.059943f, -0.073396f, 0.006017f, 0.069793f, 0.031325f, 0.074282f, 0.034444f, -0.033612f, 0.031106f, -0.046466f, -0.009938f, 0.076770f, 0.027626f, -0.031390f, 0.072942f, 0.060215f, 0.057635f, 0.005983f, -0.068733f, 0.044945f, -0.036273f, -0.047675f, 0.076437f, 0.061820f, 0.043908f, 0.041357f, -0.000729f, 0.040793f, 0.076491f, 0.060733f, -0.034536f, -0.015951f, 0.056886f, -0.078607f, 0.045882f, -0.065033f, -0.032944f, -0.073238f, 0.075215f, 0.003438f, -0.041607f, -0.057775f, 0.003320f, -0.051606f, -0.014415f, -0.001474f, -0.072594f, 0.002086f, -0.014978f, -0.008639f, -0.079810f, 0.035637f, -0.017006f, 0.072897f, 0.014888f, 0.001318f, 0.023769f, 0.069846f, -0.013821f, -0.037696f, 0.063149f, -0.035361f, 0.065736f, -0.041779f, 0.069427f, 0.059293f, 0.001022f, -0.000396f, -0.036369f, 0.050448f, 0.078601f, 0.018550f, -0.043614f, 0.037175f, -0.045260f, -0.075802f, 0.051638f, -0.063826f, 0.019119f, -0.032521f, -0.013170f, 0.079967f, -0.004462f, -0.069023f, 0.061178f, -0.023929f, -0.080513f, -0.063077f, 0.007767f, 0.002334f, 0.076980f, -0.008231f, 0.043938f, -0.012288f, 0.076946f, -0.068209f, -0.054811f, 0.051039f, -0.047038f, -0.067233f, 0.040013f, -0.077483f, 0.000584f, 0.033665f, -0.037676f, 0.045391f, -0.058673f, -0.008758f, 0.078011f, -0.015480f, -0.017918f, 0.005218f, -0.079839f, 0.054372f, 0.068613f, -0.053797f, 0.075502f, 0.005619f, -0.031478f, -0.044350f, -0.077512f, -0.049586f, 0.080421f, 0.014495f, -0.025815f, -0.026592f, 0.066878f, 0.066474f, -0.013945f, -0.050482f, -0.035350f, -0.047606f, 0.001833f, -0.012799f, 0.052323f, -0.015588f, 0.014274f, -0.076279f, 0.037501f, -0.008622f, 0.075457f, 0.012743f, 0.032919f, -0.014045f, 0.026610f, 0.016495f, 0.074679f, 0.046060f, -0.037894f, -0.021834f, -0.032641f, -0.005137f, -0.039385f, -0.074058f, 0.015899f, -0.054250f, -0.052970f, -0.044109f, 0.010883f, 0.024847f, -0.035242f, -0.037800f, 0.079666f, -0.051746f, 0.052591f, 0.018647f, -0.075903f, 0.045872f, 0.061779f, 0.030246f, -0.066579f, -0.000701f, -0.058713f, -0.017272f, -0.073829f, -0.040043f, -0.003342f, 0.002789f, -0.061121f, 0.057345f, -0.026948f, -0.028224f, -0.009427f, -0.030920f, -0.004651f, -0.016554f, 0.072304f, 0.031689f, -0.059930f, 0.029142f, -0.021539f, 0.051156f, -0.019745f, 0.076358f, -0.027435f, -0.044216f, 0.016269f, 0.008218f, -0.020366f, -0.014906f, 0.050141f, -0.056239f, 0.008120f, 0.027008f, 0.079055f, 0.012701f, -0.023391f, -0.077764f, 0.060263f, -0.008894f, -0.037778f, -0.046628f, 0.051586f, 0.041656f, -0.059980f, 0.043842f, -0.060563f, -0.048468f, -0.031093f, -0.019589f, 0.069662f, 0.040492f, -0.034149f, -0.000539f, -0.002346f, 0.047566f, 0.055867f, 0.075114f, 0.048998f, -0.013684f, 0.010174f, 0.068501f, 0.054298f, 0.022339f, 0.077045f, 0.026790f, 0.040040f, 0.063673f, 0.032319f, 0.077398f, -0.047537f, -0.015391f, 0.047406f, 0.046422f, 0.078335f, -0.010213f, -0.018122f, 0.053001f, 0.004169f, 0.013195f, 0.056438f, 0.069217f, 0.066386f, -0.014057f, 0.061167f, -0.018140f, 0.047981f, -0.057040f, 0.071819f, 0.080135f, 0.018156f, 0.020183f, 0.044718f, -0.073245f, -0.014196f, 0.002391f, 0.023059f, -0.075533f, -0.007732f, -0.070276f, -0.041117f, 0.066823f, -0.011853f, -0.056041f, 0.051322f, 0.054384f, -0.055923f, 0.035875f, 0.067851f, -0.043860f, -0.027482f, -0.033428f, 0.065864f, 0.031665f, -0.004426f, -0.051582f, -0.054173f, 0.029788f, 0.068368f, -0.045388f, 0.011064f, 0.022472f, 0.072967f, -0.020880f, 0.008473f, -0.014414f, 0.020966f, -0.051187f, -0.018753f, 0.000174f, 0.014871f, -0.021114f, 0.000763f, -0.028564f, 0.020465f, 0.070218f, -0.056073f, -0.066654f, -0.003144f, 0.009904f, -0.066551f, 0.086838f, -0.012875f, 0.008555f, 0.078367f, 0.058942f, 0.009472f, 0.068852f, 0.013962f, -0.041464f, 0.052605f, 0.032229f, 0.056110f, -0.008345f, 0.088162f, -0.016165f, 0.000843f, -0.020830f, -0.078771f, -0.004098f, -0.006229f, -0.056354f, -0.057700f, 0.003254f, 0.052356f, -0.018786f, -0.049267f, -0.059205f, 0.048883f, -0.028671f, 0.030395f, -0.026418f, -0.028036f, 0.021887f, -0.021122f, -0.058079f, 0.078477f, -0.042872f, 0.044647f, 0.019566f, 0.000426f, -0.067882f, 0.056622f, -0.079904f, 0.052653f, -0.004839f, -0.066085f, 0.051187f, 0.023763f, 0.039414f, -0.063121f, -0.048116f, -0.063016f, 0.010835f, 0.049112f, 0.080596f, -0.017049f, -0.025896f, 0.013272f, -0.032811f, -0.050393f, -0.019189f, -0.055586f, -0.081593f, -0.022353f, 0.048497f, -0.023733f, 0.008391f, 0.068555f, -0.003834f, -0.010514f, 0.084322f, -0.050264f, 0.058809f, -0.053067f, 0.031528f, 0.001245f, -0.033637f, 0.076786f, -0.057524f, 0.063299f, -0.066390f, 0.063413f, 0.038105f, -0.002002f, 0.020298f, -0.025081f, 0.001451f, 0.071398f, 0.049124f, -0.033502f, 0.045480f, 0.037852f, 0.060289f, 0.004276f, 0.048654f, -0.065931f, 0.035795f, 0.014093f, 0.070946f, -0.078250f, 0.068053f, -0.008220f, -0.047224f, 0.072584f, -0.046869f, -0.058620f, 0.031894f, -0.015344f, 0.032822f, -0.020802f, 0.060337f, -0.037584f, 0.000413f, -0.115540f, 0.012279f, 0.034716f, -0.027360f, 0.080563f, 0.034681f, 0.058688f, -0.023668f, -0.002475f, -0.037561f, -0.079907f, 0.004842f, 0.088172f, -0.041537f, -0.036815f, 0.073832f, -0.058423f, -0.065842f, -0.028959f, -0.074326f, 0.022269f, -0.050553f, 0.009334f, -0.034681f, 0.086652f, -0.010243f, 0.051985f, 0.009331f, 0.000455f, -0.065303f, 0.068637f, 0.050720f, -0.012147f, 0.101808f, 0.002573f, 0.013662f, -0.029511f, -0.024825f, -0.091769f, -0.033664f, 0.051199f, 0.069918f, -0.046894f, 0.025980f, 0.006755f, 0.048789f, -0.048788f, 0.011441f, 0.058385f, 0.064360f, 0.065790f, -0.004795f, -0.117208f, 0.066382f, 0.039293f, 0.077637f, 0.038201f, -0.044564f, -0.003810f, -0.001834f, 0.053373f, -0.041914f, -0.082715f, 0.037123f, -0.036868f, -0.041674f, 0.047235f, -0.090114f, -0.049768f, 0.006642f, -0.089260f, 0.063261f, 0.046918f, 0.076725f, -0.008106f, 0.082336f, 0.040263f, -0.051586f, 0.010700f, -0.027097f, -0.048295f, 0.000458f, -0.059510f, -0.037694f, -0.040122f, 0.015512f, 0.072851f, 0.073425f, -0.051075f, -0.002021f, 0.051459f, -0.022445f, -0.020608f, -0.050005f, 0.050121f, 0.004249f, 0.025566f, 0.066156f, -0.038807f, 0.047942f, 0.058584f, 0.038181f, 0.040818f, -0.040460f, -0.029364f, 0.008903f, -0.025898f, -0.038929f, -0.053874f, 0.072985f, 0.008855f, 0.017886f, -0.110186f, 0.081285f, 0.004339f, 0.068249f, 0.025384f, -0.057416f, 0.031958f, 0.020608f, -0.049999f, -0.078526f, -0.004312f, 0.052110f, 0.017364f, 0.061843f, -0.070055f, -0.036984f, -0.073984f, 0.117817f, 0.103491f, -0.034174f, 0.038370f, 0.047036f, 0.058137f, 0.055938f, 0.095149f, 0.048109f, -0.040395f, 0.000278f, 0.061302f, 0.116524f, 0.000643f, -0.026367f, -0.079535f, -0.104531f, 0.046524f, 0.069733f, -0.046021f, 0.017962f, -0.059393f, -0.010566f, 0.109393f, -0.077700f, 0.004180f, -0.050617f, -0.002693f, 0.005937f, 0.014148f, 0.039460f, 0.050209f, 0.074755f, -0.060903f, 0.015759f, -0.029191f, 0.004944f, -0.045569f, -0.004087f, 0.050245f, 0.098279f, 0.095510f, 0.031665f, 0.106381f, -0.016368f, 0.049010f, 0.089108f, -0.100273f, -0.049955f, -0.035828f, -0.011288f, -0.056687f, 0.065732f, 0.006243f, 0.012105f, -0.112442f, 0.063078f, 0.046843f, -0.049874f, -0.023076f, 0.032039f, -0.052423f, 0.071155f, -0.022548f, 0.028123f, -0.038295f, -0.076432f, -0.090315f, 0.038989f, -0.018380f, 0.012274f, -0.017138f, 0.006353f, 0.064442f, 0.117024f, 0.057981f, -0.049826f, 0.000719f, 0.053341f, -0.050682f, -0.069394f, -0.062160f, -0.041010f, 0.038975f, 0.076477f, 0.106775f, 0.024502f, 0.024432f, -0.053033f, 0.078375f, 0.023962f, -0.068943f, 0.038049f, -0.002093f, -0.006751f, -0.098272f, -0.036319f, 0.092097f, 0.027545f, 0.077491f, 0.005322f, 0.019727f, 0.047043f, -0.060018f, -0.022859f, -0.041140f, 0.060653f, -0.105047f, 0.124756f, 0.002817f, 0.057394f, 0.002465f, -0.020069f, 0.030526f, 0.058972f, 0.059538f, -0.050876f, -0.033039f, -0.067066f, 0.018667f, -0.020525f, -0.068537f, -0.123855f, 0.046763f, -0.009071f, 0.084586f, 0.053017f, -0.062344f, 0.096549f, -0.024394f, -0.081514f, -0.019578f, -0.005085f, 0.004464f, 0.091293f, 0.003350f, 0.021905f, -0.096825f, -0.048489f, 0.132031f, 0.057608f, 0.032747f, 0.108481f, 0.008919f, -0.005200f, 0.009637f, -0.027854f, -0.025757f, 0.082531f, -0.027100f, -0.062349f, 0.078110f, 0.035004f, 0.014952f, -0.044848f, 0.142230f, -0.006532f, -0.025520f, 0.036315f, 0.070989f, 0.139766f, 0.005352f, 0.081200f, -0.074179f, -0.067886f, -0.034841f, -0.012473f, -0.004500f, 0.092482f, -0.008259f, 0.015630f, -0.012005f, -0.097108f, 0.035344f, 0.029086f, -0.031396f, -0.019799f, -0.082014f, 0.106374f, -0.103191f, -0.033610f, -0.078723f, 0.115074f, -0.029170f, -0.061107f, 0.095170f, -0.032926f, 0.081734f, -0.094766f, -0.081856f, -0.088766f, 0.024570f, -0.076659f, 0.061329f, -0.074617f, -0.023528f, -0.005715f, -0.064023f, 0.071521f, 0.092178f, -0.035151f, 0.062796f, 0.036200f, -0.005793f, -0.065092f, -0.051671f, 0.015480f, 0.000991f, 0.003274f, 0.037358f, 0.095790f, 0.022740f, 0.073835f, 0.125783f, 0.118764f, -0.102472f, -0.012698f, 0.083004f, -0.041759f, -0.017475f, -0.067695f, -0.069123f, 0.063714f, -0.071838f, 0.064368f, 0.102105f, -0.027369f, -0.055928f, -0.076170f, -0.009122f, -0.030389f, -0.022621f, 0.096499f, -0.045731f, 0.086698f, -0.072757f, 0.133858f, -0.064883f, 0.090212f, -0.086008f, -0.036517f, -0.025834f, -0.008017f, 0.092802f, -0.018100f, -0.105920f, -0.044121f, -0.029404f, -0.016964f, 0.022086f, -0.051933f, -0.017731f, 0.054045f, -0.040850f, -0.105387f, -0.019306f, 0.072903f, 0.042360f, -0.092054f, 0.038740f, -0.063011f, 0.045028f, 0.053801f, 0.048159f, 0.084296f, 0.049047f, -0.078475f, 0.053250f, 0.028239f, 0.105248f, 0.017569f, 0.081469f, -0.049436f, 0.062677f, 0.058362f, 0.049831f, 0.047762f, 0.037845f, -0.001236f, 0.010423f, 0.075400f, 0.012922f, 0.051279f, -0.017848f, -0.119395f, 0.018853f, 0.029359f, 0.085884f, 0.133927f, -0.006661f, 0.073101f, -0.049618f, 0.013526f, -0.060174f, -0.038382f, 0.083719f, 0.109115f, 0.025117f, -0.031197f, 0.130556f, -0.104131f, 0.054043f, 0.091676f, -0.073246f, 0.033458f, -0.014959f, 0.004311f, -0.045002f, 0.059197f, -0.051191f, 0.089798f, -0.037007f, -0.000453f, 0.116442f, -0.045622f, 0.079113f, 0.002646f, -0.071027f, -0.010372f, 0.016068f, 0.000515f, -0.048896f, -0.094087f, 0.046175f, -0.064399f, -0.082014f, -0.055496f, 0.081484f, 0.059921f, 0.037994f, -0.003693f, 0.012035f, -0.012914f, 0.076623f, -0.049928f, 0.015977f, -0.073532f, 0.039669f, 0.108229f, -0.037758f, 0.136613f, 0.024880f, 0.122949f, -0.001336f, -0.133832f, 0.101106f, -0.047154f, 0.019692f, -0.053126f, -0.105467f, -0.021537f, -0.020298f, -0.033100f, 0.130825f, -0.005583f, 0.004051f, -0.021325f, -0.028722f, -0.008739f, -0.054698f, 0.077241f, 0.000043f, 0.075410f, -0.020847f, 0.068254f, -0.072229f, -0.003560f, -0.103238f, -0.046676f, 0.021324f, 0.022766f, 0.073283f, -0.047854f, 0.017058f, -0.034582f, -0.022061f, 0.024408f, -0.103174f, 0.020259f, -0.017078f, -0.004514f, 0.062023f, -0.118719f, -0.064999f, 0.121873f, -0.028833f, -0.079562f, -0.029450f, -0.090072f, -0.034478f, -0.020106f, 0.126287f, 0.045337f, 0.004765f, -0.023246f, 0.040577f, -0.026178f, 0.049379f, 0.007297f, -0.034380f, -0.050335f, 0.002559f, -0.013711f, 0.036409f, -0.072005f, -0.093836f, -0.067896f, 0.072157f, 0.064533f, 0.011752f, 0.057143f, 0.036906f, 0.012698f, 0.019256f, -0.020505f, 0.016050f, 0.091057f, -0.006958f, 0.095944f, -0.068980f, -0.065928f, -0.092016f, -0.051018f, -0.002146f, 0.006473f, 0.038144f, -0.054051f, 0.137225f, -0.093638f, 0.047050f, 0.019292f, -0.029099f, -0.043775f, -0.038003f, -0.040795f, -0.101970f, -0.049594f, 0.055644f, 0.027629f, -0.004984f, 0.024380f, 0.035209f, -0.008620f, 0.115876f, -0.083692f, -0.007837f, -0.094152f, -0.101146f, 0.008353f, 0.044275f, -0.019558f, -0.108532f, -0.031457f, -0.084120f, -0.045646f, -0.038201f, -0.000864f, 0.022724f, 0.036383f, 0.004961f, -0.077120f, 0.070986f, 0.018367f, -0.019516f, -0.043487f, -0.083154f, -0.001480f, -0.105763f, 0.015703f, 0.025980f, 0.051478f, -0.129937f, -0.074186f, 0.123602f, 0.078523f, 0.074995f, 0.026611f, -0.030410f, 0.009851f, -0.122599f, -0.076756f, 0.049018f, 0.046746f, -0.028632f, 0.044986f, -0.100673f, 0.066876f, -0.018202f, 0.085466f, -0.024345f, 0.028398f, -0.029720f, 0.108771f, 0.000301f, 0.035198f, -0.055635f, -0.027976f, -0.049624f, 0.016274f, -0.005684f, -0.126840f, -0.061426f, -0.050854f, 0.025541f, -0.023530f, -0.100658f, 0.024611f, -0.105615f, -0.049443f, -0.019540f, -0.049958f, 0.010615f, 0.110193f, -0.008716f, -0.104807f, 0.045922f, -0.066336f, -0.078800f, 0.126906f, 0.012392f, -0.068504f, 0.051947f, -0.085251f, -0.001833f, 0.084217f, 0.017263f, 0.003486f, 0.064145f, 0.048922f, -0.039875f, -0.033744f, -0.097667f, -0.002266f, -0.022380f, 0.024274f, 0.077012f, -0.002246f, 0.055713f, -0.047897f, 0.040381f, -0.003078f, -0.067488f, -0.018293f, -0.029568f, 0.002725f, 0.001597f, 0.036585f, -0.053085f, 0.027999f, -0.067856f, -0.046329f, -0.057733f, -0.011862f, -0.019841f, -0.076529f, 0.073036f, 0.039682f, 0.083195f, 0.105002f, -0.101151f, 0.023509f, 0.005265f, -0.022882f, 0.036048f, -0.027417f, 0.055296f, 0.101190f, -0.013458f, 0.041045f, 0.019021f, -0.057901f, 0.052017f, -0.026969f, 0.079741f, -0.013085f, 0.017819f, 0.065269f, -0.006455f, 0.005341f, -0.026064f, -0.033233f, -0.029684f, 0.039049f, -0.030235f, 0.032973f, 0.039268f, -0.035983f, -0.025580f, 0.011201f, 0.062824f, 0.046370f, -0.069884f, 0.047550f, -0.067878f, -0.042192f, -0.036925f, 0.101579f, 0.036375f, 0.096364f, 0.001516f, -0.074129f, -0.042505f, -0.043586f, 0.069676f, 0.037518f, 0.003839f, 0.073644f, -0.000114f, -0.006160f, 0.035573f, -0.088348f, 0.029956f, -0.025466f, -0.095460f, -0.082863f, -0.089333f, 0.040939f, 0.005204f, 0.113503f, -0.020643f, -0.013220f, 0.072314f, -0.051795f, 0.015984f, 0.069222f, -0.074708f, -0.057793f, 0.018544f, -0.014545f, 0.036750f, 0.060107f, 0.064981f, -0.094523f, -0.087122f, -0.049143f, -0.056071f, -0.022865f, 0.064919f, 0.020971f, -0.031695f, 0.022438f, -0.068002f, -0.010873f, -0.080823f, -0.021035f, -0.008831f, 0.126284f, 0.152867f, 0.014473f, -0.107667f, 0.000374f, 0.125595f, 0.018470f, 0.098935f, -0.019682f, -0.050518f, -0.100335f, 0.092080f, -0.096228f, -0.086374f, -0.064645f, -0.080130f, 0.036134f, 0.105579f, -0.047358f, 0.105627f, -0.026516f, 0.012366f, -0.004119f, -0.023316f, -0.109847f, 0.004118f, 0.088379f, -0.125861f, 0.025667f, -0.131745f, 0.073703f, -0.020646f, -0.018223f, -0.079140f, -0.043613f, 0.040428f, 0.011499f, 0.136201f, 0.006695f, 0.063147f, 0.056584f, -0.197650f, -0.173784f, -0.058971f, -0.007693f, -0.007386f, -0.078070f, 0.052845f, 0.079980f, -0.104340f, 0.010313f, 0.090188f, -0.158919f, 0.111153f, 0.022556f, -0.007492f, -0.108659f, -0.059803f, 0.067037f, -0.041883f, -0.181748f, -0.089075f, -0.034680f, -0.044328f, -0.061785f, 0.085739f, -0.006106f, -0.124803f, -0.034388f, 0.031358f, -0.072259f, 0.029054f, -0.115262f, -0.082349f, -0.025353f, 0.056953f, 0.026796f, -0.064122f, 0.058776f, 0.116726f, 0.156865f, -0.120259f, -0.021133f, 0.015261f, -0.060842f, 0.046182f, -0.050683f, -0.001104f, 0.131832f, -0.156059f, -0.026936f, 0.085546f, 0.016536f, -0.020273f, -0.057820f, -0.014550f, 0.036746f, -0.032349f, 0.102762f, 0.023528f, 0.043285f, -0.043009f, 0.051974f, -0.031953f, 0.069985f, -0.106340f, -0.061262f, -0.134483f, -0.084533f, -0.031998f, -0.057752f, 0.006248f, 0.001490f, 0.011995f, -0.021133f, -0.084917f, -0.121931f, -0.064286f, -0.060015f, 0.073022f, 0.023936f, -0.041805f, 0.140395f, -0.018175f, -0.056915f, -0.016907f, -0.064222f, -0.016768f, 0.109598f, -0.000459f, 0.081631f, -0.030476f, -0.022495f, 0.089362f, 0.099991f, 0.065623f, 0.088087f, 0.061005f, -0.066288f, -0.015844f, -0.073845f, -0.016737f, 0.093999f, 0.014605f, -0.023892f, 0.073690f, 0.083682f, 0.112265f, -0.032028f, 0.016240f, -0.129142f, 0.066846f, -0.041654f, -0.034969f, 0.165225f, 0.049193f, 0.060888f, 0.008970f, 0.077919f, 0.050156f, 0.048544f, -0.042467f, 0.036312f, 0.018121f, 0.052349f, 0.138313f, -0.052046f, 0.225680f, 0.063913f, -0.030213f, -0.072413f, -0.072553f, 0.087750f, -0.092329f, -0.123338f, 0.000948f, 0.032666f, -0.068763f, 0.012225f, 0.102355f, -0.109638f, 0.084030f, 0.083230f, -0.012698f, -0.058467f, -0.007610f, 0.014470f, 0.008674f, -0.039471f, -0.041826f, -0.089324f, 0.001824f, 0.072199f, -0.016938f, 0.049668f, 0.038052f, -0.027366f, 0.068918f, -0.164449f, 0.029859f, -0.094507f, -0.034295f, -0.012315f, -0.095246f, 0.095964f, 0.035885f, -0.011001f, 0.161229f, 0.059185f, -0.041327f, 0.010502f, 0.093583f, 0.071666f, -0.025157f, 0.066964f, -0.174940f, 0.040744f, 0.003579f, -0.065099f, 0.129996f, 0.037794f, 0.027410f, -0.042119f, 0.058482f, 0.017622f, -0.108737f, 0.027639f, 0.046083f, 0.120269f, -0.060008f, 0.001613f, -0.073544f, -0.001218f, -0.093474f, 0.021627f, -0.002374f, -0.069701f, -0.028518f, -0.103723f, -0.005246f, -0.079208f, -0.015770f, 0.020524f, -0.110306f, -0.064281f, -0.140889f, -0.076191f, 0.127695f, -0.013349f, -0.124729f, 0.126680f, -0.008356f, -0.061673f, 0.022981f, 0.037025f, 0.038012f, 0.157154f, 0.079447f, 0.018081f, -0.006698f, -0.026597f, -0.022814f, 0.119165f, 0.011006f, 0.031123f, 0.029410f, -0.115100f, -0.006342f, -0.056971f, -0.124599f, -0.034738f, -0.000860f, 0.071565f, 0.108675f, 0.133144f, 0.031260f, -0.035257f, 0.100593f, 0.011082f, 0.054746f, -0.003931f, -0.022009f, 0.033716f, -0.138685f, 0.030089f, -0.000447f, 0.096983f, -0.013904f, -0.019243f, 0.028319f, 0.069636f, 0.102695f, 0.007412f, 0.123495f, 0.012341f, 0.162804f, 0.083817f, -0.087119f, -0.014712f, 0.050300f, 0.014107f, -0.080598f, -0.057852f, 0.027024f, 0.119389f, -0.094103f, -0.105097f, 0.006182f, -0.100966f, 0.146472f, -0.112094f, -0.032718f, 0.016599f, 0.087348f, 0.080124f, 0.091504f, -0.079941f, -0.060244f, 0.058816f, 0.028613f, -0.049290f, 0.060201f, -0.095894f, -0.068377f, 0.079981f, 0.043877f, -0.072278f, -0.070592f, -0.015580f, -0.041264f, -0.111795f, -0.023306f, 0.070989f, 0.002549f, 0.013799f, 0.036072f, 0.129002f, 0.008946f, -0.072589f, 0.017669f, -0.052055f, 0.007525f, 0.057769f, -0.045347f, 0.127825f, -0.062085f, -0.099436f, 0.145839f, -0.058290f, 0.033777f, 0.030081f, 0.038777f, 0.066730f, -0.062596f, 0.042473f, -0.052191f, 0.049995f, -0.100640f, 0.011166f, 0.014661f, 0.073314f, -0.120979f, 0.095134f, -0.028512f, -0.003258f, 0.044325f, 0.053994f, -0.094619f, -0.104558f, 0.069220f, 0.070760f, -0.052583f, -0.021962f, -0.089404f, -0.054347f, 0.040346f, 0.037983f, -0.000462f, 0.037449f, 0.025055f, -0.028289f, 0.009937f, 0.014954f, -0.031836f, 0.045917f, -0.019927f, 0.003113f, -0.122437f, 0.050363f, 0.031851f, 0.026700f, 0.003475f, 0.030659f, 0.067944f, 0.013068f, -0.063123f, 0.010707f, 0.040650f, -0.002843f, 0.067463f, -0.007855f, -0.068242f, -0.023194f, -0.100348f, -0.032074f, -0.034793f, -0.051005f, -0.002999f, 0.058372f, -0.077906f, -0.056468f, -0.013677f, -0.059747f, 0.022693f, -0.026478f, -0.005232f, 0.068222f, -0.029707f, -0.085475f, -0.018890f, 0.107044f, 0.058869f, -0.007382f, 0.056327f, 0.056552f, 0.076510f, 0.029438f, -0.063666f, -0.004831f, -0.105435f, -0.063771f, -0.057520f, 0.007581f, 0.059081f, -0.079229f, 0.048759f, -0.081825f, 0.077318f, -0.090503f, 0.054787f, -0.000157f, 0.085317f, 0.032804f, -0.078688f, -0.062068f, -0.028077f, -0.029331f, -0.070641f, -0.026329f, 0.066419f, 0.088559f, -0.116494f, -0.008594f, 0.030067f, 0.051144f, 0.043268f, -0.055184f, -0.083889f, 0.002495f, 0.082434f, 0.030811f, -0.076908f, -0.023500f, -0.058905f, 0.012235f, -0.034855f, 0.032973f, 0.076325f, 0.052087f, 0.017800f, -0.028397f, 0.024086f, -0.032160f, -0.043503f, 0.031729f, -0.032657f, -0.031769f, 0.045534f, -0.084920f, -0.059184f, 0.036004f, -0.054615f, 0.028409f, 0.030948f, 0.002156f, -0.020257f, 0.045736f, 0.062223f, 0.033876f, -0.052371f, 0.172323f, -0.041010f, 0.014207f, 0.052595f, -0.034659f, -0.065823f, -0.016025f, 0.150916f, -0.012364f, 0.020510f, -0.052621f, -0.023243f, -0.048801f, 0.140535f, -0.090548f, -0.078680f, 0.094504f, 0.028307f, -0.009545f, 0.098319f, -0.056790f, 0.079742f, 0.082649f, -0.005073f, 0.074926f, 0.027643f, -0.051917f, -0.005437f, 0.064207f, 0.033038f, 0.019905f, -0.100443f, 0.010107f, 0.077329f, -0.004763f, -0.013669f, -0.014625f, -0.002850f, -0.016285f, 0.089962f, -0.042144f, -0.059833f, -0.098934f, 0.095052f, -0.093773f, 0.003863f, 0.063385f, 0.011786f, 0.077212f, -0.136565f, 0.054669f, -0.067230f, 0.022738f, 0.013616f, 0.138220f, 0.064938f, 0.011976f, 0.066612f, 0.036957f, 0.047657f, -0.086052f, 0.003732f, 0.087718f, -0.000859f, -0.022999f, -0.014533f, 0.003501f, -0.122148f, 0.096143f, 0.023498f, 0.023354f, -0.160803f, 0.044818f, 0.041377f, -0.046796f, 0.077353f, -0.060264f, -0.026635f, -0.119068f, 0.016654f, 0.003283f, -0.051030f, -0.004103f, -0.127267f, -0.012162f, -0.089798f, -0.044423f, 0.118658f, 0.002441f, -0.129339f, -0.014718f, 0.072163f, 0.012441f, -0.124650f, -0.046677f, -0.020028f, -0.135444f, 0.048501f, -0.078515f, -0.081715f, -0.007380f, 0.147577f, 0.161441f, -0.041648f, -0.049834f, 0.121390f, -0.022321f, -0.077344f, -0.014124f, -0.050268f, 0.155863f, -0.171087f, 0.042212f, 0.079376f, -0.036815f, 0.062744f, -0.108784f, -0.144119f, 0.007190f, -0.101738f, -0.002930f, 0.044993f, -0.003089f, -0.053552f, 0.058201f, -0.151626f, -0.005898f, -0.078882f, 0.071135f, -0.063151f, -0.081088f, 0.080773f, -0.016162f, -0.025573f, -0.077885f, 0.067388f, 0.059997f, -0.037807f, -0.111448f, -0.038931f, -0.050133f, 0.029081f, -0.090360f, -0.048122f, -0.037151f, -0.051067f, -0.039580f, -0.021542f, 0.039844f, 0.138974f, 0.125287f, -0.067754f, 0.054632f, 0.056030f, -0.107075f, 0.006758f, 0.080293f, -0.100274f, 0.047040f, -0.126741f, 0.013111f, 0.023105f, 0.033255f, -0.084377f, 0.127257f, -0.009630f, -0.102818f, 0.005897f, -0.129281f, 0.155892f, -0.082621f, 0.126271f, 0.017443f, 0.059327f, 0.053483f, -0.009650f, 0.110189f, -0.053994f, 0.037110f, 0.045464f, -0.025202f, 0.018354f, 0.044133f, 0.099404f, 0.143156f, 0.108714f, 0.071868f, 0.108073f, -0.103847f, 0.159903f, 0.078773f, -0.115174f, -0.108694f, 0.005257f, -0.071919f, -0.153433f, -0.003700f, -0.032745f, 0.082201f, -0.059723f, 0.061814f, 0.020392f, -0.129479f, 0.124281f, 0.021195f, -0.041897f, -0.091080f, 0.109681f, 0.001412f, -0.064023f, -0.106742f, -0.102474f, -0.002900f, 0.012444f, -0.015425f, 0.029614f, -0.079118f, -0.090507f, -0.094125f, 0.023680f, 0.032284f, -0.062594f, -0.075824f, -0.015157f, -0.144103f, 0.085355f, -0.048532f, 0.018963f, 0.151025f, 0.078015f, 0.145364f, -0.039900f, -0.013696f, -0.053573f, -0.011966f, -0.020363f, 0.036097f, -0.053082f, -0.054559f, -0.067390f, -0.040637f, 0.094833f, 0.046374f, -0.002016f, -0.075550f, -0.018515f, 0.037791f, -0.083553f, 0.182178f, 0.101513f, 0.068555f, 0.012256f, -0.042009f, -0.055418f, 0.001822f, -0.117613f, -0.007810f, 0.006222f, -0.034118f, 0.039378f, -0.034005f, -0.016895f, 0.094530f, -0.054326f, 0.004578f, -0.047307f, 0.047277f, -0.128189f, 0.042937f, 0.091877f, -0.141680f, -0.015468f, 0.084041f, -0.062776f, -0.068215f, -0.017980f, 0.046093f, 0.099836f, 0.179412f, -0.059126f, 0.045568f, 0.020062f, -0.031436f, -0.039366f, -0.009193f, 0.092112f, 0.064766f, 0.013864f, 0.058643f, -0.036267f, -0.007309f, -0.126011f, 0.021676f, 0.062819f, -0.055615f, 0.069234f, 0.024609f, 0.102016f, 0.010200f, 0.115773f, -0.179545f, 0.027821f, 0.101804f, -0.121589f, 0.156675f, -0.091338f, -0.019208f, 0.014318f, 0.074481f, -0.054388f, 0.178440f, 0.003958f, -0.044992f, 0.084842f, -0.043045f, 0.165572f, -0.095219f, 0.002342f, 0.122463f, -0.087643f, -0.040587f, 0.026017f, -0.078482f, -0.076745f, -0.036277f, 0.017329f, 0.114377f, -0.118909f, -0.009828f, 0.015613f, -0.093241f, 0.144324f, -0.070571f, -0.016911f, -0.049041f, 0.017414f, -0.060834f, -0.101922f, -0.076103f, -0.022520f, 0.040746f, -0.026834f, 0.037656f, -0.067382f, 0.086061f, -0.149081f, 0.032926f, 0.117049f, -0.027562f, -0.046639f, -0.164335f, -0.130641f, -0.154663f, 0.104730f, -0.097462f, -0.015266f, 0.140130f, 0.113618f, 0.078019f, -0.012239f, -0.073174f, 0.127333f, -0.047788f, 0.049879f, 0.039371f, -0.074776f, -0.044982f, -0.043129f, -0.077468f, 0.148075f, 0.049080f, 0.009021f, -0.095552f, -0.043930f, 0.083228f, -0.075376f, 0.162270f, -0.000619f, 0.087486f, 0.017980f, -0.065387f, -0.062087f, -0.007217f, -0.136485f, 0.052523f, -0.145992f, 0.001352f, 0.068073f, 0.056869f, -0.074887f, 0.042119f, -0.033471f, -0.008815f, -0.029425f, 0.053810f, -0.044556f, 0.033377f, -0.020503f, -0.072399f, 0.017508f, 0.180871f, -0.041905f, 0.060944f, 0.002575f, -0.097322f, -0.027389f, 0.186484f, 0.034940f, -0.034178f, -0.090701f, -0.069549f, 0.136877f, 0.058740f, 0.069904f, 0.022935f, 0.111855f, -0.087687f, 0.090176f, -0.104864f, -0.029854f, -0.003393f, 0.029077f, -0.043748f, 0.008502f, 0.069571f, -0.080281f, 0.087139f, 0.113566f, -0.001496f, 0.073164f, -0.018865f, -0.036742f, 0.078715f, -0.092758f, 0.002071f, 0.103465f, 0.079550f, -0.036297f, 0.068572f, 0.051326f, 0.015525f, 0.119709f, 0.029603f, 0.157146f, -0.108524f, 0.089316f, 0.057029f, -0.030403f, -0.110472f, 0.048054f, -0.054921f, -0.121551f, -0.009889f, -0.066653f, 0.205242f, -0.188592f, -0.037522f, 0.039867f, -0.031556f, 0.072024f, -0.087408f, 0.091357f, -0.058543f, -0.061382f, 0.022523f, 0.054685f, -0.020934f, -0.140062f, 0.002763f, -0.032342f, -0.025330f, 0.047605f, 0.077988f, -0.023288f, 0.009691f, 0.115514f, -0.007099f, 0.000440f, -0.037706f, -0.079090f, -0.035556f, 0.075466f, -0.006781f, -0.000402f, 0.130385f, 0.066552f, 0.156206f, -0.093031f, -0.064301f, 0.145488f, 0.010290f, -0.050355f, 0.052111f, -0.084138f, 0.094354f, -0.068526f, -0.014636f, 0.017434f, 0.002439f, 0.007428f, -0.007979f, 0.031217f, -0.104769f, -0.071957f, 0.070791f, 0.012544f, -0.038272f, -0.002892f, 0.119322f, -0.022285f, -0.030830f, -0.067658f, 0.055693f, -0.040586f, -0.028431f, 0.036107f, -0.111810f, -0.168671f, -0.001818f, 0.129809f, -0.078041f, -0.041056f, -0.047771f, 0.029849f, 0.058757f, 0.047302f, 0.052916f, -0.030868f, 0.085677f, -0.067275f, -0.114736f, 0.027998f, -0.086592f, -0.057561f, 0.006245f, 0.039833f, -0.084449f, -0.067525f, 0.012952f, 0.052177f, -0.012045f, 0.070203f, -0.054446f, -0.027645f, -0.112822f, -0.095826f, -0.055701f, -0.086710f, -0.042683f, -0.088744f, -0.029407f, -0.026137f, -0.006720f, -0.027495f, 0.071775f, 0.074404f, -0.081363f, -0.043750f, 0.027226f, -0.000212f, 0.093732f, -0.011357f, -0.029817f, 0.057056f, 0.024294f, -0.096756f, -0.036367f, 0.089955f, 0.033973f, -0.050549f, -0.071772f, 0.036695f, 0.015009f, 0.044890f, 0.038611f, -0.050916f, -0.053184f, 0.008903f, -0.019593f, 0.047896f, -0.034760f, 0.019544f, -0.041907f, 0.041677f, -0.069226f, -0.033749f, -0.082614f, 0.034831f, -0.025527f, 0.049380f, 0.010485f, 0.019335f, -0.038164f, 0.045108f, -0.099123f, 0.044011f, -0.087124f, 0.009069f, 0.019634f, -0.000476f, 0.046626f, 0.033169f, 0.034975f, -0.053803f, -0.100135f, 0.062224f, -0.045568f, 0.058167f, 0.055946f, 0.058701f, 0.083867f, -0.082323f, 0.086935f, 0.021917f, -0.036965f, -0.003204f, -0.005408f, 0.037603f, 0.018039f, -0.055053f, -0.038111f, 0.063441f, 0.013802f, 0.031072f, 0.044439f, 0.108844f, -0.092990f, -0.002061f, -0.071819f, -0.127068f, 0.004709f, 0.019866f, 0.085895f, -0.053469f, -0.056084f, 0.066727f, 0.084351f, 0.013247f, -0.036486f, -0.005161f, -0.000194f, -0.063325f, -0.042606f, -0.061578f, -0.007680f, -0.048763f, -0.062655f, 0.063336f, 0.022224f, -0.028590f, -0.074010f, 0.057255f, 0.043101f, -0.012271f, -0.020992f, 0.048178f, 0.019407f, 0.025995f, 0.057661f, -0.064062f, -0.080545f, -0.004551f, 0.087598f, 0.072146f, 0.016197f, 0.012468f, 0.000478f, 0.043215f, 0.073431f, 0.051561f, -0.001974f, 0.059330f, -0.012140f, 0.078994f, 0.004624f, -0.015150f, -0.027329f, -0.024968f, 0.077931f, 0.073487f, 0.073053f, -0.075904f, 0.011272f, -0.035267f, -0.109236f, -0.014012f, -0.021569f, -0.018019f, 0.050490f, -0.055806f, 0.100040f, 0.000187f, 0.078294f, 0.028788f, 0.001267f, -0.020137f, 0.050008f, -0.044678f, 0.072879f, 0.064738f, -0.074262f, 0.038810f, 0.106000f, 0.001809f, -0.033230f, 0.017732f, -0.065846f, 0.013785f, -0.052633f, -0.032045f, 0.015731f, -0.081765f, -0.026568f, -0.007440f, -0.031174f, -0.024799f, -0.043825f, 0.018789f, 0.059197f, -0.089099f, 0.019384f, 0.055232f, -0.091632f, 0.037141f, 0.022457f, -0.106018f, -0.042808f, 0.042624f, -0.016393f, -0.069839f, 0.100074f, 0.075105f, -0.062178f, 0.020754f, 0.022003f, -0.089863f, -0.015952f, -0.078088f, -0.058161f, -0.037103f, 0.104929f, -0.042874f, 0.000107f, -0.088677f, -0.079108f, 0.024628f, -0.060030f, 0.040968f, 0.051712f, -0.008579f, 0.026174f, -0.086812f, -0.049506f, 0.024513f, -0.066392f, -0.002358f, 0.047981f, -0.054038f, -0.017528f, -0.066775f, 0.065615f, -0.015488f, 0.093370f, 0.161671f, 0.074017f, 0.075671f, 0.081980f, -0.029190f, 0.141735f, 0.023250f, -0.074303f, 0.015744f, 0.062289f, -0.002198f, 0.016403f, -0.032782f, -0.080499f, -0.076193f, -0.010760f, 0.041500f, 0.017583f, 0.076319f, -0.000677f, -0.085053f, 0.088240f, -0.025696f, -0.017841f, -0.044053f, -0.053524f, -0.079819f, -0.025219f, -0.047259f, -0.067088f, -0.074920f, -0.093362f, 0.002491f, 0.025758f, -0.027358f, 0.101001f, 0.047599f, -0.089752f, 0.036237f, -0.017745f, -0.005059f, -0.054550f, -0.093802f, -0.038452f, 0.013407f, -0.032414f, 0.003043f, -0.033159f, -0.016251f, -0.031241f, -0.060049f, -0.040383f, 0.087591f, -0.024659f, 0.043665f, 0.048455f, -0.060933f, -0.035935f, -0.040537f, 0.070061f, 0.034169f, -0.070169f, 0.017247f, 0.021948f, 0.109501f, -0.091076f, 0.041722f, 0.017443f, -0.035016f, -0.027810f, -0.054947f, -0.021790f, 0.041872f, -0.019667f, 0.045214f, 0.105992f, 0.011342f, -0.067355f, -0.024248f, 0.032725f, 0.068855f, 0.027210f, 0.057413f, -0.072114f, -0.034080f, 0.068220f, 0.034581f, -0.025765f, -0.050329f, 0.000520f, -0.058959f, -0.004814f, -0.001706f, 0.004459f, 0.023011f, 0.039162f, 0.063060f, -0.033852f, 0.049200f, -0.073777f, -0.062048f, -0.052823f, 0.010690f, 0.021582f, -0.029454f, 0.030100f, 0.026611f, 0.079822f, 0.028449f, -0.095696f, 0.007512f, -0.067659f, -0.072028f, -0.049695f, 0.062909f, 0.055632f, -0.078495f, 0.042488f, 0.103098f, 0.023945f, -0.069243f, -0.012567f, -0.013264f, 0.079569f, -0.021643f, 0.110194f, -0.076664f, 0.028703f, 0.022300f, -0.005004f, -0.029522f, 0.048386f, -0.007522f, 0.034259f, -0.037626f, -0.050814f, -0.043150f, -0.054430f, -0.094688f, -0.066881f, 0.050548f, -0.009492f, -0.034109f, 0.002836f, -0.037750f, 0.080845f, 0.060756f, -0.087292f, 0.031616f, -0.010858f, 0.004679f, -0.058809f, -0.011685f, -0.039870f, 0.032724f, -0.034606f, 0.076968f, 0.042046f, -0.016282f, -0.097393f, 0.052492f, -0.028919f, 0.048914f, 0.011424f, -0.021810f, -0.058441f, 0.018822f, -0.060750f, -0.026237f, -0.021923f, -0.045713f, -0.044590f, 0.008353f, -0.010482f, 0.087491f, 0.024968f, 0.001109f, -0.013710f, 0.022609f, 0.092610f, -0.021117f, 0.092182f, -0.109061f, 0.116129f, 0.005367f, 0.001176f, -0.067998f, 0.105580f, 0.090222f, 0.029522f, -0.026688f, -0.036030f, -0.005126f, -0.076233f, -0.012330f, -0.006992f, -0.102767f, -0.018122f, 0.055794f, -0.005353f, 0.044064f, -0.052023f, -0.056320f, 0.083478f, -0.003067f, -0.048062f, -0.016368f, 0.034216f, 0.000458f, -0.076533f, -0.022425f, 0.024859f, 0.037561f, -0.079032f, -0.057131f, 0.053869f, -0.074869f, -0.041164f, -0.032721f, -0.014214f, 0.068693f, 0.081614f, -0.027637f, 0.014608f, -0.020540f, -0.057606f, -0.055597f, 0.031452f, 0.020714f, 0.030507f, 0.025012f, -0.001834f, 0.001104f, 0.011359f, 0.100318f, -0.006997f, -0.065785f, -0.036328f, -0.019929f, -0.041895f, 0.031502f, 0.007813f, -0.010349f, 0.028095f, -0.078465f, -0.005042f, -0.013148f, -0.069479f, 0.063909f, 0.000027f, -0.048366f, 0.073818f, -0.076644f, 0.020622f, 0.081299f, 0.060674f, 0.023884f, 0.078237f, -0.051230f, 0.006227f, -0.054475f, 0.080826f, -0.037398f, -0.031142f, -0.009310f, -0.022924f, -0.085647f, 0.045810f, -0.022690f, 0.040025f, 0.038519f, 0.023116f, -0.024256f, -0.006221f, -0.019906f, -0.041022f, -0.080927f, -0.033316f, 0.037343f, -0.025557f, -0.015338f, 0.071700f, -0.066448f, 0.006108f, 0.041579f, 0.075155f, -0.074042f, 0.013259f, 0.024849f, 0.095756f, 0.083765f, 0.011565f, 0.011123f, -0.052232f, 0.054857f, 0.050116f, 0.059805f, 0.048360f, -0.026231f, 0.071770f, 0.084561f, -0.054843f, 0.020055f, -0.072482f, 0.058682f, 0.026031f, 0.051297f, -0.018316f, -0.017779f, -0.007271f, -0.064031f, -0.015064f, 0.033032f, -0.093696f, -0.091916f, 0.038580f, -0.072796f, 0.043519f, 0.054105f, -0.066477f, 0.100254f, -0.010816f, 0.054792f, 0.035389f, -0.048902f, 0.071221f, 0.075325f, -0.063372f, -0.029164f, 0.039947f, -0.049218f, -0.003388f, 0.013605f, -0.049296f, 0.036271f, -0.020619f, 0.004623f, -0.034702f, 0.021662f, 0.031790f, -0.064694f, -0.018312f, -0.077329f, -0.051352f, 0.042010f, -0.024085f, -0.005950f, -0.038202f, -0.008810f, -0.027073f, 0.004027f, -0.069959f, -0.041431f, -0.069289f, -0.007771f, -0.091447f, 0.014452f, -0.073639f, 0.008368f, -0.023812f, 0.034701f, -0.042460f, -0.038406f, 0.048483f, 0.004924f, -0.041021f, 0.105954f, -0.045818f, 0.030036f, -0.026705f, -0.026878f, 0.061817f, -0.070941f, -0.056966f, -0.000775f, 0.019448f, 0.065319f, -0.048843f, -0.084542f, -0.026363f, -0.041387f, 0.039648f, -0.012563f, -0.064921f, 0.024735f, -0.015974f, -0.005981f, -0.032520f, -0.032705f, 0.096505f, 0.035172f, 0.065339f, -0.086000f, -0.044122f, -0.091032f, -0.080278f, -0.071725f, 0.064587f, 0.043790f, -0.001645f, -0.019375f, -0.047813f, 0.040924f, -0.009302f, 0.038320f, 0.028618f, -0.059866f, -0.025346f, 0.059080f, -0.008195f, -0.005795f, 0.057904f, 0.013211f, -0.046115f, 0.049795f, -0.075112f, -0.050231f, -0.064404f, -0.027525f, 0.043529f, 0.014983f, -0.055981f, 0.059613f, -0.042686f, -0.067694f, -0.066697f, -0.053338f, -0.080881f, 0.080820f, -0.074150f, -0.031306f, 0.036043f, -0.008291f, 0.015968f, 0.044023f, -0.056385f, 0.066566f, -0.072770f, -0.071907f, 0.079596f, -0.003645f, -0.067136f, -0.030026f, -0.025993f, -0.056402f, -0.029031f, 0.063699f, 0.066332f, 0.022652f, -0.079747f, 0.035469f, 0.015148f, -0.043551f, -0.019417f, -0.074921f, -0.003418f, -0.068665f, 0.046809f, 0.013463f, 0.049515f, 0.030224f, 0.037807f, 0.080994f, 0.075982f, 0.039583f, -0.019718f, 0.044769f, 0.056654f, 0.001543f, 0.029650f, 0.055247f, 0.005451f, 0.023420f, -0.003422f, 0.038498f, 0.020943f, 0.017992f, 0.079523f, -0.006355f, 0.015882f, 0.038619f, -0.046096f, 0.046377f, 0.023059f, 0.049783f, -0.038842f, 0.021350f, -0.052413f, -0.044784f, -0.027638f, -0.029649f, 0.065635f, -0.028193f, 0.060484f, -0.011496f, -0.035058f, -0.025287f, -0.060475f, 0.041237f, 0.045915f, 0.055520f, 0.010899f, 0.011293f, 0.015330f, 0.030266f, 0.037945f, 0.017840f, -0.021961f, 0.028604f, 0.067218f, 0.021135f, 0.004024f, 0.045058f, -0.048251f, 0.078249f, -0.069188f, 0.009735f, -0.039182f, -0.069802f, -0.017261f, 0.006355f, 0.021001f, 0.023045f, 0.053719f, -0.014149f, -0.063632f, -0.075959f, 0.021879f, -0.048212f, -0.066354f, 0.026868f, -0.080413f, 0.017076f, -0.011570f, 0.076331f, 0.018337f, 0.065838f, -0.037205f, -0.073555f, 0.031087f, 0.003313f, 0.064829f, 0.079130f, -0.014475f, 0.075471f, -0.013089f, 0.068236f, -0.048891f, -0.080666f, 0.071179f, -0.007864f, -0.010615f, 0.017889f, -0.062954f, 0.016737f, 0.033714f, -0.027538f, 0.076187f, -0.029032f, 0.038400f, -0.021550f, -0.014530f, 0.038145f, -0.070195f, 0.073281f, -0.037542f, 0.034664f, -0.036778f, -0.032103f, 0.013369f, 0.025066f, -0.010737f, -0.065303f, 0.027360f, 0.059686f, -0.050501f, 0.013454f, 0.059959f, -0.072523f, -0.071633f, -0.008385f, 0.026680f, 0.032829f, 0.068464f, -0.057789f, -0.061221f, -0.070070f, 0.053863f, 0.011952f, -0.008716f, 0.072439f, -0.004114f, 0.073014f, 0.079104f, 0.047980f, 0.022521f, -0.020053f, -0.066768f, 0.040990f, 0.049832f, 0.062709f, -0.053338f, -0.071024f, 0.013462f, -0.042442f, 0.077326f, -0.042146f, -0.036634f, -0.016773f, 0.060036f, 0.005869f, 0.003550f, 0.074319f, 0.012782f, 0.055206f, -0.067096f, 0.076533f, 0.063580f, -0.065801f, -0.046759f, 0.004465f, 0.072863f, -0.020074f, 0.079881f, -0.028165f, -0.015946f, -0.006395f, 0.040593f, 0.031578f, 0.066084f, 0.011109f, -0.038694f, 0.063519f, -0.050515f, 0.044447f, 0.001764f, -0.062266f, 0.045972f, 0.016779f, -0.030962f, 0.007160f, 0.055961f, 0.061330f, 0.016458f, -0.046190f, 0.043193f, 0.009600f, -0.051010f, 0.071306f, 0.067746f, 0.016255f, -0.070978f, -0.019879f, -0.028928f, -0.070877f, -0.061034f, -0.068786f, 0.030608f, 0.042565f, -0.010344f, 0.016974f, -0.071133f, -0.000191f, -0.066848f, -0.009165f, -0.032913f, -0.049555f, 0.024191f, -0.061465f, 0.075450f, 0.052570f, -0.049823f, 0.074415f, -0.079301f, 0.017494f, -0.010242f, -0.038939f, -0.036777f, 0.032341f, 0.048148f, -0.053392f, -0.032352f, 0.066455f, 0.057574f, -0.079541f, 0.063518f, 0.046665f, -0.061178f, 0.050362f, 0.002359f, -0.034677f, 0.060947f, -0.032182f, 0.008282f, 0.073676f, -0.074997f, 0.076498f, 0.009343f, -0.050249f, -0.050662f, -0.050775f, 0.017605f, 0.051094f, -0.000882f, -0.061437f, 0.026451f, -0.065520f, -0.052139f, 0.067641f, -0.002872f, -0.078551f, -0.033221f, -0.031714f, 0.017278f, 0.067623f, 0.017398f, 0.051698f, 0.002888f, -0.018915f, -0.061895f, -0.007525f, -0.011701f, 0.063076f, 0.014123f, 0.003138f, -0.012955f, -0.053014f, -0.058915f, 0.044145f, -0.019479f, 0.009859f, 0.047509f, -0.013381f, 0.043509f, -0.061759f, 0.036750f, 0.009399f, 0.060866f, -0.003115f, -0.022393f, 0.029195f, 0.032283f, 0.071439f, 0.030602f, 0.041861f, 0.039457f, 0.045604f, -0.038848f, -0.060666f, -0.066947f, -0.065479f, -0.035687f, -0.008814f, -0.035489f, 0.026062f, 0.022018f, -0.071596f, 0.041053f, -0.076421f, -0.007514f, -0.005999f, 0.028161f, 0.013582f, 0.052456f, 0.045023f, 0.015777f, -0.002280f, -0.011931f, 0.038821f, 0.003111f, 0.048737f, 0.015046f, -0.007176f, 0.002201f, 0.044272f, 0.062702f, -0.035336f, 0.026633f, 0.056679f, -0.032421f, 0.014944f, 0.003773f, 0.010491f, 0.019460f, 0.021384f, -0.028617f, 0.071585f, -0.020523f, 0.058287f, 0.021116f, -0.033841f, -0.006011f, 0.063738f, 0.057377f, -0.062378f, 0.070310f, -0.036023f, 0.046851f, 0.030175f, 0.056746f, -0.050821f, 0.069822f, -0.045866f, -0.013766f, 0.044402f, -0.071910f, 0.050315f, 0.002464f, 0.023146f, -0.070122f, -0.010493f, -0.049913f, 0.002733f, 0.034870f, -0.005352f, 0.069661f, -0.062760f, 0.027524f, -0.033800f, 0.036882f, 0.023170f, 0.047565f, 0.046091f, 0.033511f, 0.000343f, -0.009618f, 0.058213f, -0.021881f, -0.042796f, 0.059579f, 0.079665f, 0.050589f, -0.029202f, 0.049058f, 0.074107f, 0.036554f, -0.057181f, 0.000618f, 0.067118f, -0.020714f, 0.018457f, 0.054420f, -0.034383f, 0.034666f, 0.079427f, -0.045066f, 0.042579f, 0.005914f, -0.039872f, -0.067617f, 0.077878f, 0.079908f, -0.029886f, 0.055913f, 0.078820f, 0.075928f, 0.074876f, 0.006307f, 0.056230f, -0.013755f, -0.066392f, 0.029548f, -0.032302f, 0.062577f, -0.049521f, 0.062088f, -0.062315f, -0.001903f, -0.042447f, -0.041990f, 0.027870f, 0.064509f, -0.016846f, -0.023375f, -0.052753f, -0.031676f, -0.070836f, -0.048547f, -0.006887f, 0.080590f, -0.066308f, 0.058323f, -0.058459f, 0.005838f, 0.040216f, 0.006670f, 0.068800f, 0.074398f, -0.076355f, -0.049769f, 0.050335f, -0.051630f, 0.064557f, -0.013448f, 0.049648f, 0.049903f, 0.062796f, 0.048946f, 0.050875f, -0.041756f, 0.014490f, 0.018205f, 0.006568f, -0.018874f, -0.036856f, 0.019229f, 0.048543f, -0.035103f, 0.025106f, 0.043589f, 0.061798f, -0.077566f, -0.014267f, -0.053595f, 0.030133f, 0.042507f, -0.064474f, 0.007366f, -0.020317f, 0.000960f, -0.067532f, -0.055916f, -0.010494f, 0.050357f, 0.004938f, 0.034107f, -0.040441f, 0.005334f, -0.068826f, -0.051230f, 0.032567f, -0.036966f, 0.045778f, 0.027177f, -0.025705f, -0.072120f, 0.033478f, -0.047247f, 0.054299f, -0.000950f, 0.039593f, -0.019685f, 0.028095f, 0.072459f, 0.041842f, -0.071845f, -0.061635f, -0.055127f, 0.017199f, 0.068099f, -0.010077f, -0.010103f, 0.034343f, -0.064491f, 0.057131f, -0.051235f, -0.053685f, -0.022245f, -0.008345f, 0.037202f, 0.066125f, 0.061629f, 0.069028f, -0.004087f, 0.051680f, -0.033957f, -0.061000f, 0.073018f, 0.015314f, -0.021782f, -0.012835f, -0.028786f, -0.048469f, -0.027859f, -0.019020f, -0.068559f, -0.049636f, -0.028864f, -0.072230f, 0.002864f, -0.014570f, -0.028249f, -0.012532f, 0.078739f, -0.062991f, 0.064422f, -0.001781f, -0.036406f, -0.016693f, -0.069170f, 0.080427f, -0.062965f, -0.026750f, 0.066622f, -0.028269f, -0.004649f, -0.005302f, -0.016409f, -0.062741f, -0.074207f, 0.011157f, -0.038664f, -0.043410f, -0.049691f, -0.069199f, 0.037116f, 0.006038f, 0.058517f, 0.032434f, 0.047099f, -0.055039f, 0.037750f, -0.037754f, 0.000122f, 0.058327f, -0.001971f, 0.064993f, -0.071420f, -0.054442f, 0.009877f, -0.035594f, 0.027844f, -0.068128f, 0.075342f, 0.036119f, 0.053159f, -0.057547f, 0.041047f, -0.004432f, 0.004181f, 0.003043f, 0.020242f, -0.014003f, 0.052362f, -0.018372f, -0.030794f, -0.064604f, -0.047100f, -0.033000f, -0.075542f, 0.043692f, -0.066689f, -0.080856f, -0.056762f, 0.046347f, -0.072385f, 0.068315f, -0.044902f, 0.062104f, 0.024147f, 0.000199f, 0.018223f, -0.026447f, 0.071012f, -0.026056f, 0.024345f, -0.062830f, -0.064441f, -0.006729f, -0.038510f, -0.032446f, -0.005073f, 0.023753f, 0.076145f, 0.026938f, 0.044884f, 0.007279f, -0.017559f, 0.056088f, 0.053965f, -0.068096f, 0.080595f, -0.010976f, 0.038756f, -0.058218f, 0.076780f, 0.004025f, -0.032945f, 0.072473f, 0.003937f, 0.012020f, -0.076062f, -0.055230f, 0.010297f, -0.044692f, -0.015059f, -0.041120f, -0.017678f, 0.041513f, 0.045073f, -0.041944f, 0.033456f, -0.074298f, -0.058848f, -0.006594f, -0.020280f, -0.051945f, 0.045045f, 0.080953f, -0.056639f, 0.072948f, 0.056773f, -0.048790f, -0.019537f, -0.069677f, -0.017388f, -0.028266f, 0.031126f, 0.045945f, 0.074801f, -0.041229f, -0.011440f, -0.078730f, 0.023923f, -0.006752f, 0.048910f, 0.038699f, -0.021119f, 0.033118f, -0.044260f, 0.077707f, 0.065677f, 0.013364f, -0.074160f, 0.071682f, -0.080572f, -0.004429f, -0.007025f, -0.029492f, 0.068375f, 0.036050f, -0.065535f, -0.079275f, -0.014806f, 0.041876f, -0.068577f, 0.022020f, -0.077724f, -0.071928f, 0.023683f, 0.038345f, -0.068916f, -0.054618f, 0.038647f, 0.039121f, 0.006837f, 0.005525f, 0.076723f, -0.059492f, -0.062975f, -0.076161f, -0.054868f, -0.068178f, -0.019760f, 0.008176f, 0.072194f, -0.054782f, -0.011140f, 0.063432f, 0.009060f, 0.029196f, -0.071540f, -0.064391f, 0.039895f, -0.022838f, 0.026359f, 0.022443f, 0.068099f, 0.072706f, -0.074420f, -0.053871f, 0.071893f, 0.019970f, -0.045963f, -0.026447f, 0.001447f, -0.021309f, -0.051629f, 0.010592f, -0.006934f, 0.070445f, 0.027647f, -0.041692f, -0.032338f, -0.041264f, -0.026167f, 0.054989f, -0.047143f, 0.024960f, 0.013520f, -0.006245f, 0.020072f, -0.008665f, -0.007352f, -0.049064f, -0.076351f, -0.059193f, -0.049656f, 0.061953f, -0.029724f, 0.039613f, 0.001669f, 0.053056f, -0.065740f, -0.052921f, 0.040333f, 0.043919f, -0.001424f, -0.007870f, 0.017303f, 0.067971f, -0.015750f, -0.034090f, -0.010496f, -0.053226f, 0.051048f, -0.017059f, -0.009877f, -0.007976f, -0.038075f, 0.054078f, -0.084281f, 0.020660f, 0.081077f, 0.055048f, -0.078007f, 0.032285f, 0.028075f, -0.062100f, -0.026017f, -0.027078f, 0.067906f, -0.024464f, 0.031335f, 0.071869f, -0.018101f, 0.041290f, -0.042821f, 0.037395f, -0.069455f, 0.041417f, 0.026092f, -0.000662f, 0.050566f, -0.047958f, -0.056702f, -0.023091f, -0.058320f, -0.049631f, -0.023455f, 0.071535f, -0.029289f, -0.053175f, 0.016090f, -0.074402f, -0.046992f, -0.050322f, -0.047463f, 0.028997f, 0.034589f, -0.081617f, 0.058262f, 0.084872f, -0.002212f, -0.002757f, -0.016997f, -0.009965f, -0.021614f, 0.017247f, -0.079097f, 0.075554f, -0.072158f, 0.032373f, 0.038823f, -0.032421f, 0.044011f, -0.002600f, -0.024670f, -0.025109f, 0.040028f, 0.073994f, -0.036867f, -0.020885f, -0.026569f, 0.056130f, 0.035971f, -0.000394f, -0.030999f, 0.046067f, -0.060825f, 0.027518f, 0.055583f, -0.075071f, 0.005683f, 0.032081f, -0.048724f, 0.007218f, 0.024794f, 0.054096f, 0.059477f, -0.069961f, 0.025846f, 0.001828f, 0.073515f, 0.065959f, -0.029890f, 0.069740f, 0.027610f, 0.013302f, -0.052554f, 0.019646f, 0.046770f, 0.095976f, 0.022122f, -0.082931f, 0.019263f, 0.053946f, 0.050871f, 0.012868f, 0.035797f, 0.026098f, -0.005229f, 0.099953f, 0.057312f, 0.001127f, 0.020033f, 0.073869f, -0.043746f, -0.000724f, 0.076321f, 0.014735f, -0.057594f, -0.070644f, 0.007192f, -0.010252f, -0.027936f, -0.035615f, 0.026880f, 0.049431f, 0.015474f, 0.003270f, -0.043690f, 0.027958f, 0.066394f, -0.052168f, 0.092074f, -0.018982f, -0.041673f, 0.039151f, -0.061743f, 0.018889f, -0.002994f, 0.035151f, -0.037583f, 0.019768f, 0.068786f, 0.036220f, -0.027616f, 0.024158f, -0.079175f, -0.014286f, 0.028989f, 0.019112f, -0.029612f, 0.051861f, -0.068680f, -0.058982f, -0.001417f, -0.047226f, 0.085149f, 0.024787f, -0.043483f, 0.011956f, 0.057918f, 0.014977f, 0.023903f, 0.051597f, 0.001191f, 0.066655f, -0.003211f, 0.002749f, -0.058066f, -0.056368f, 0.070161f, -0.047500f, -0.037804f, 0.038293f, 0.071265f, -0.055062f, -0.033357f, -0.088144f, -0.049196f, -0.053079f, 0.073719f, 0.007359f, -0.034476f, -0.083727f, -0.018197f, 0.067779f, 0.067532f, -0.060445f, -0.039033f, -0.057752f, 0.049720f, -0.077311f, -0.098226f, 0.024791f, 0.064846f, 0.005928f, 0.009892f, -0.022099f, 0.014118f, 0.019278f, -0.073403f, 0.086860f, 0.070555f, 0.005073f, 0.059945f, 0.013642f, 0.027541f, 0.074089f, 0.033005f, 0.011474f, 0.048428f, -0.034610f, 0.017877f, -0.010430f, 0.001691f, 0.015213f, -0.022104f, -0.043801f, -0.032724f, 0.058121f, -0.057335f, 0.086537f, -0.029755f, 0.079995f, 0.063745f, 0.043100f, 0.005185f, 0.078000f, -0.000118f, 0.053974f, 0.055631f, 0.030224f, -0.113616f, 0.009497f, 0.042964f, -0.069022f, -0.023830f, -0.016625f, 0.035363f, -0.039301f, 0.036607f, 0.044575f, 0.100839f, 0.095810f, -0.100372f, -0.066850f, -0.000967f, 0.039884f, 0.056026f, -0.063192f, 0.107912f, -0.049942f, -0.031477f, -0.072781f, 0.045584f, -0.008070f, -0.071058f, -0.035877f, 0.015404f, 0.028440f, -0.005060f, -0.017761f, 0.005609f, -0.048499f, 0.037090f, 0.045975f, 0.088018f, -0.084118f, 0.080295f, 0.023476f, 0.068653f, -0.114861f, -0.026347f, 0.067879f, -0.020890f, 0.003098f, -0.043743f, -0.043412f, 0.005103f, -0.012574f, -0.007981f, -0.016834f, 0.023904f, -0.071454f, -0.023972f, 0.015374f, -0.055423f, -0.024416f, -0.072596f, 0.018326f, 0.023337f, -0.007010f, 0.001736f, -0.072735f, 0.009938f, -0.026602f, 0.045287f, -0.045727f, 0.027492f, -0.051025f, 0.042920f, -0.010839f, 0.028843f, -0.048186f, -0.029008f, 0.041926f, 0.035706f, -0.080987f, -0.078109f, -0.054259f, 0.037235f, -0.051644f, -0.072786f, 0.073665f, -0.008130f, 0.015509f, -0.020449f, -0.057962f, -0.046715f, -0.000945f, 0.037078f, 0.017491f, 0.063113f, 0.046553f, -0.068056f, -0.000203f, 0.065716f, 0.011266f, -0.018709f, -0.032228f, 0.067659f, -0.050306f, -0.046268f, -0.046587f, -0.035365f, -0.074230f, 0.065984f, -0.136214f, -0.039330f, -0.040003f, -0.017450f, 0.083895f, 0.028027f, 0.061833f, 0.074275f, -0.063367f, -0.000501f, 0.072011f, -0.027257f, -0.062047f, -0.036568f, 0.030785f, -0.067986f, -0.052245f, -0.002181f, -0.060481f, 0.096297f, 0.047763f, -0.051565f, -0.056027f, 0.010351f, 0.042993f, -0.020886f, -0.015953f, 0.033370f, -0.082381f, -0.047021f, 0.124763f, 0.029778f, -0.003655f, -0.045320f, -0.025416f, 0.012839f, -0.021318f, 0.055034f, 0.055951f, 0.063826f, 0.059046f, 0.014975f, 0.026852f, 0.064923f, -0.027277f, 0.026431f, 0.045005f, 0.018575f, 0.049981f, 0.008245f, -0.058423f, -0.065343f, 0.080112f, 0.035380f, -0.028868f, -0.033308f, -0.010252f, -0.005715f, -0.037333f, 0.033279f, -0.031904f, 0.071996f, 0.022843f, -0.008481f, -0.065462f, 0.022334f, -0.027614f, -0.018233f, -0.048336f, 0.032155f, -0.022434f, -0.031382f, 0.000443f, 0.073710f, 0.005905f, -0.084796f, -0.059223f, 0.057025f, -0.038039f, -0.032797f, 0.050197f, 0.001905f, 0.060091f, 0.058610f, -0.024552f, -0.012882f, -0.054027f, 0.032551f, -0.078716f, -0.025645f, 0.020551f, 0.027386f, 0.020324f, 0.025651f, -0.050906f, -0.011198f, 0.084645f, 0.012101f, -0.014469f, 0.063128f, -0.041295f, -0.029637f, -0.068267f, 0.054861f, 0.016228f, -0.019649f, -0.037476f, -0.080224f, 0.049344f, 0.067091f, -0.057036f, 0.026230f, -0.014338f, 0.090696f, -0.025661f, 0.070706f, 0.049566f, -0.007822f, -0.104243f, -0.001041f, 0.056108f, 0.003691f, -0.052555f, -0.051881f, -0.065246f, -0.047092f, -0.033351f, -0.059569f, 0.014888f, -0.051723f, 0.051031f, -0.072619f, -0.055936f, 0.005849f, 0.021933f, 0.004923f, 0.078884f, 0.010307f, 0.028153f, 0.025627f, -0.009179f, 0.104616f, 0.057322f, 0.014148f, -0.059286f, -0.010687f, 0.073451f, 0.125074f, 0.054791f, 0.069738f, 0.077637f, -0.036332f, 0.031140f, 0.027629f, -0.076275f, -0.033579f, -0.036849f, 0.000278f, 0.106902f, 0.062264f, 0.056642f, -0.056780f, 0.002828f, -0.031194f, 0.059559f, -0.032357f, 0.064807f, 0.011436f, -0.025760f, 0.011728f, -0.044525f, 0.032630f, -0.063582f, 0.008169f, 0.016793f, 0.045101f, 0.076591f, -0.079105f, 0.008770f, -0.058490f, 0.080112f, 0.087494f, -0.036893f, -0.102134f, 0.062855f, 0.008495f, 0.029087f, 0.018857f, -0.038751f, 0.036510f, -0.112616f, -0.081207f, -0.050001f, -0.044436f, 0.083106f, -0.084383f, -0.049407f, -0.077302f, -0.037017f, -0.036336f, 0.033010f, 0.034923f, -0.068558f, 0.048940f, -0.034795f, -0.002172f, -0.039317f, 0.052333f, -0.048208f, -0.023684f, 0.086920f, -0.078531f, -0.053642f, -0.077890f, 0.018810f, -0.096868f, 0.007207f, 0.018149f, 0.026331f, 0.031738f, 0.056893f, 0.072222f, 0.007295f, -0.019858f, 0.087861f, 0.072809f, -0.068251f, -0.030880f, 0.002237f, 0.001319f, 0.023888f, 0.062922f, 0.113277f, -0.033491f, -0.007213f, -0.030432f, 0.036854f, 0.027942f, -0.098713f, 0.030271f, 0.014005f, 0.121383f, 0.005563f, 0.057192f, -0.067621f, 0.032267f, -0.053398f, 0.030521f, -0.046248f, 0.035843f, -0.056688f, -0.000268f, -0.069123f, 0.045583f, -0.044999f, -0.045825f, -0.032096f, -0.093777f, -0.028251f, 0.009814f, -0.003523f, 0.032448f, -0.109838f, 0.142453f, 0.008119f, -0.023526f, 0.032756f, -0.048976f, 0.026961f, -0.041310f, 0.147970f, 0.132972f, -0.117152f, -0.073541f, 0.065598f, 0.051266f, 0.115804f, -0.005009f, -0.056917f, -0.085617f, 0.053695f, 0.065722f, 0.056002f, 0.116661f, 0.020769f, -0.046646f, 0.069753f, -0.005371f, 0.027755f, 0.021662f, 0.111808f, 0.011956f, -0.015407f, -0.015144f, 0.051076f, 0.019155f, -0.018501f, 0.057693f, 0.031377f, 0.024134f, -0.076972f, 0.005921f, 0.006228f, 0.064591f, 0.098531f, 0.012095f, 0.093153f, -0.002760f, 0.085208f, 0.062799f, -0.073406f, -0.142326f, -0.043922f, 0.139257f, 0.002132f, 0.017187f, -0.058438f, 0.094509f, -0.097958f, -0.094533f, 0.028894f, -0.113399f, 0.001579f, -0.009926f, -0.022970f, 0.049988f, 0.042825f, -0.059656f, -0.094159f, -0.081916f, -0.009385f, -0.031906f, -0.002048f, 0.001088f, 0.046468f, 0.037593f, 0.030893f, -0.054054f, 0.017474f, -0.062149f, -0.059111f, -0.095490f, 0.063293f, -0.090434f, -0.071145f, 0.033582f, -0.003990f, 0.109703f, 0.167905f, 0.089189f, -0.037730f, -0.111135f, 0.015068f, 0.058975f, 0.069654f, 0.044932f, 0.009673f, 0.145638f, -0.065302f, 0.046525f, 0.010234f, -0.043698f, -0.055072f, -0.073733f, 0.004075f, -0.021721f, -0.099866f, 0.058033f, 0.053253f, 0.021104f, -0.001520f, -0.025657f, -0.058375f, -0.020023f, -0.041711f, -0.018058f, -0.017035f, -0.100232f, -0.033182f, -0.040324f, 0.017918f, -0.040071f, 0.013218f, -0.070715f, -0.088935f, -0.091139f, -0.043152f, -0.108431f, -0.010241f, -0.090847f, -0.042432f, 0.071792f, 0.098438f, -0.029810f, -0.041448f, -0.085201f, 0.030856f, 0.063222f, 0.068634f, 0.024675f, -0.031501f, -0.131797f, -0.036510f, 0.042652f, -0.019782f, 0.033174f, 0.063571f, -0.043759f, -0.044123f, 0.025536f, -0.078216f, 0.007466f, -0.087150f, -0.048241f, 0.137071f, -0.022805f, 0.083450f, -0.009421f, 0.090136f, -0.103431f, -0.012792f, 0.063531f, 0.004489f, 0.101892f, -0.073947f, 0.074666f, -0.060494f, 0.010894f, -0.020173f, -0.040250f, 0.118082f, 0.114359f, -0.006903f, 0.070776f, 0.140597f, -0.023475f, 0.183793f, 0.082361f, -0.078168f, 0.017900f, -0.034329f, 0.133893f, -0.021107f, 0.052227f, 0.022322f, 0.000876f, 0.002404f, -0.017639f, 0.167610f, -0.032019f, 0.140440f, -0.129410f, -0.035571f, 0.058225f, 0.074244f, 0.067644f, -0.018389f, -0.105698f, -0.021751f, -0.054539f, -0.047724f, 0.008473f, -0.007863f, -0.005069f, -0.064802f, -0.039364f, 0.144409f, -0.033135f, -0.002427f, -0.048939f, -0.070434f, -0.043985f, -0.043263f, -0.014626f, -0.083111f, 0.114598f, 0.021991f, 0.091231f, -0.072273f, -0.083413f, 0.087537f, 0.031608f, 0.073605f, -0.035505f, -0.027722f, 0.028849f, -0.138835f, -0.045708f, 0.005110f, 0.077862f, 0.005079f, -0.074735f, -0.055256f, 0.043220f, -0.112813f, 0.051999f, 0.082605f, 0.030695f, -0.015989f, 0.030756f, 0.038018f, -0.016667f, -0.120656f, -0.018740f, -0.083231f, -0.098633f, 0.087628f, -0.072088f, -0.126014f, 0.048155f, 0.056077f, 0.046647f, -0.071715f, 0.080787f, 0.005098f, 0.001759f, 0.054562f, -0.002553f, -0.087999f, 0.068438f, 0.016884f, 0.035640f, -0.038902f, -0.029403f, -0.106930f, 0.049525f, 0.006246f, 0.002555f, -0.042193f, -0.078995f, 0.070715f, 0.042703f, 0.055935f, 0.072304f, -0.014958f, -0.034856f, -0.010435f, -0.016664f, -0.052665f, -0.017135f, -0.089017f, 0.080175f, 0.011812f, 0.006461f, -0.052317f, -0.038619f, 0.072545f, -0.018215f, 0.074275f, -0.091637f, 0.092696f, 0.118653f, -0.009929f, 0.086271f, -0.108114f, -0.039206f, 0.024867f, -0.063140f, -0.007739f, 0.095660f, 0.061181f, -0.037819f, 0.096277f, -0.003290f, 0.234323f, 0.026758f, -0.099503f, -0.094757f, -0.077004f, 0.015512f, -0.124594f, -0.052415f, -0.019484f, 0.099208f, -0.126902f, -0.118303f, 0.085477f, -0.022289f, 0.166959f, -0.065907f, -0.057608f, -0.086272f, -0.036347f, 0.008608f, -0.009474f, -0.020178f, -0.073696f, -0.070296f, -0.005043f, -0.023466f, 0.043408f, 0.018704f, 0.008151f, 0.056247f, 0.088181f, -0.113182f, -0.066798f, -0.043214f, -0.087389f, -0.131411f, 0.027831f, 0.062774f, 0.012781f, 0.178432f, 0.070181f, -0.026203f, 0.008521f, -0.117061f, -0.020674f, 0.005881f, -0.000169f, 0.021366f, -0.053745f, 0.013734f, -0.162836f, -0.021381f, -0.013264f, -0.038433f, -0.072572f, -0.037396f, -0.072483f, 0.064567f, -0.003839f, 0.167211f, 0.042832f, 0.120949f, -0.037700f, 0.027743f, -0.016087f, 0.031522f, -0.060280f, -0.030219f, -0.000905f, 0.004058f, 0.049859f, -0.028123f, -0.094826f, -0.062817f, 0.129976f, 0.029740f, -0.110106f, 0.014418f, -0.002327f, 0.009117f, 0.112269f, -0.136073f, -0.038489f, 0.125977f, -0.091031f, -0.004167f, -0.059692f, -0.052154f, -0.057842f, -0.000253f, 0.036725f, 0.090557f, 0.038453f, -0.147349f, -0.014877f, 0.096581f, 0.025388f, 0.088273f, 0.053129f, -0.085866f, -0.042984f, -0.027373f, -0.085674f, 0.093169f, -0.017916f, -0.012562f, 0.110748f, 0.077535f, 0.075635f, -0.055227f, 0.066859f, 0.007353f, -0.070104f, -0.049558f, 0.077615f, 0.107031f, -0.159687f, 0.110111f, -0.065197f, -0.063848f, -0.022347f, -0.034145f, 0.044845f, 0.181454f, 0.063087f, -0.034514f, 0.087087f, -0.121394f, 0.192042f, 0.038837f, -0.057667f, -0.009032f, -0.003794f, 0.230777f, -0.102340f, 0.088005f, -0.062102f, 0.055999f, -0.091517f, -0.132055f, 0.196036f, -0.025390f, 0.044150f, -0.073794f, 0.025878f, -0.049735f, 0.034138f, 0.036498f, 0.014734f, -0.020635f, -0.163104f, -0.023722f, -0.008912f, -0.029398f, 0.116517f, -0.034401f, -0.104664f, 0.040202f, 0.077569f, -0.158069f, -0.056380f, -0.098789f, 0.001539f, -0.027062f, -0.037543f, 0.166418f, -0.077913f, 0.114038f, 0.085024f, 0.032706f, -0.001565f, -0.058194f, 0.006255f, -0.052781f, -0.020188f, 